,stim_weight,stim_n,subj_idx,response,rt,condition
0,-47.26530504,1.995643939,968634301,0.0,-2.0710000000000184,0
1,-44.93197171,-2.0043560609999997,657894484,0.0,-1.7019999999999984,0
2,-42.84863837,-3.004356061,657894484,0.0,-2.5480000000000014,0
3,-41.93197171,-2.0043560609999997,97123322,0.0,-1.1329999999999971,0
4,-41.26530504,-2.0043560609999997,904039471,0.0,-1.0650000000000002,0
5,-40.59863837,1.995643939,961875421,0.0,-2.1200000000000006,0
6,-40.09863837,-0.004356061,933260573,1.0,2.129000000000009,0
7,-38.59863837,-2.0043560609999997,218675715,0.0,-1.594000000000015,0
8,-37.59863837,-2.0043560609999997,351777009,1.0,1.0,0
9,-34.93197171,1.995643939,657894484,1.0,2.1570000000000116,0
10,-34.49863837,-3.004356061,504663288,0.0,-6.5920000000000645,0
11,-34.34863837,1.995643939,294041592,1.0,5.2100000000000275,0
12,-34.26530504,1.995643939,904039471,1.0,1.0819999999999945,0
13,-34.26530504,1.995643939,968634301,0.0,-1.6920000000000055,0
14,-34.09863837,1.995643939,294041592,0.0,-10.97400000000009,0
15,-33.93197171,-2.0043560609999997,97123322,0.0,-1.089000000000002,0
16,-33.84863837,-0.004356061,294041592,1.0,7.349999999999939,0
17,-33.59863837,-1.004356061,657894484,0.0,-3.124000000000019,0
18,-33.59863837,3.995643939,657894484,1.0,4.567000000000006,0
19,-33.09863837,-2.0043560609999997,218675715,0.0,-4.493999999999984,0
20,-32.59863837,-2.0043560609999997,278773301,1.0,1.6649999999999916,0
21,-32.59863837,1.995643939,628308431,0.0,-1.4850000000000112,0
22,-32.09863837,-1.004356061,657894484,0.0,-3.0560000000000245,0
23,-31.93197171,-1.004356061,504663288,0.0,-3.0009999999999812,0
24,-31.59863837,-0.004356061,504663288,0.0,-4.278000000000008,0
25,-31.59863837,1.995643939,968634301,1.0,1.9049999999999805,0
26,-31.26530504,-2.0043560609999997,923162466,0.0,-1.9550000000000167,0
27,-31.09863837,-0.004356061,626227255,0.0,-1.952999999999982,0
28,-30.93197171,1.995643939,97123322,0.0,-1.0,0
29,-30.93197171,1.995643939,968634301,0.0,-2.123000000000021,0
30,-30.59863837,-0.004356061,192065971,1.0,1.818999999999986,0
31,-30.59863837,-0.004356061,657894484,0.0,-4.231000000000002,0
32,-30.59863837,0.995643939,350745134,1.0,2.888999999999976,0
33,-30.34863837,2.995643939,657894484,1.0,2.876999999999972,0
34,-30.26530504,-2.0043560609999997,218675715,0.0,-1.1410000000000033,0
35,-30.26530504,-2.0043560609999997,642346147,1.0,1.1510000000000016,0
36,-30.26530504,1.995643939,923162466,0.0,-1.6660000000000188,0
37,-30.09863837,-0.004356061,923162466,1.0,1.0,0
38,-29.59863837,-0.004356061,97123322,1.0,1.3020000000000118,0
39,-29.59863837,-0.004356061,968634301,1.0,2.2929999999999935,0
40,-29.26530504,-2.0043560609999997,933260573,1.0,1.7789999999999968,0
41,-28.59863837,-2.0043560609999997,749079099,1.0,1.6180000000000163,0
42,-28.59863837,-0.004356061,605713945,0.0,-1.1680000000000055,0
43,-28.59863837,-0.004356061,968634301,0.0,-2.2490000000000174,0
44,-28.26530504,0.995643939,717256200,1.0,2.9890000000000176,0
45,-28.26530504,1.995643939,75969320,1.0,1.0,0
46,-28.09863837,-0.004356061,97123322,0.0,-1.0500000000000065,0
47,-28.09863837,-0.004356061,507157861,0.0,-1.688999999999991,0
48,-28.09863837,-0.004356061,657894484,1.0,2.264999999999999,0
49,-27.93197171,0.995643939,933260573,1.0,2.6479999999999935,0
50,-27.93197171,1.995643939,904039471,1.0,1.0040000000000076,0
51,-27.93197171,1.995643939,933260573,1.0,1.0,0
52,-27.84863837,-3.004356061,321769333,1.0,2.78099999999997,0
53,-27.59863837,-0.004356061,97123322,1.0,1.1519999999999964,0
54,-27.59863837,-0.004356061,218675715,0.0,-1.2859999999999898,0
55,-27.59863837,-0.004356061,224184422,1.0,1.5879999999999934,0
56,-27.19863837,2.995643939,504663288,1.0,6.8429999999999565,0
57,-27.09863837,-0.004356061,34984274,0.0,-1.7000000000000133,0
58,-27.09863837,-0.004356061,923162466,0.0,-2.030999999999977,0
59,-27.09863837,2.995643939,717256200,1.0,2.5160000000000022,0
60,-26.93197171,-2.0043560609999997,34984274,1.0,1.307999999999995,0
61,-26.93197171,-2.0043560609999997,968634301,1.0,1.9039999999999968,0
62,-26.93197171,-0.004356061,716236442,0.0,-4.791999999999956,0
63,-26.93197171,1.995643939,828632181,0.0,-1.1549999999999851,0
64,-26.93197171,1.995643939,933260573,0.0,-1.5819999999999943,0
65,-26.93197171,1.995643939,968634301,1.0,2.2999999999999785,0
66,-26.59863837,-3.004356061,504663288,0.0,-3.80400000000003,0
67,-26.59863837,-2.0043560609999997,147547787,0.0,-1.4990000000000143,0
68,-26.59863837,-2.0043560609999997,657894484,0.0,-2.183999999999989,0
69,-26.59863837,-0.004356061,904039471,0.5,-0.048500000000000376,0
70,-26.59863837,-0.004356061,923162466,1.0,4.5970000000000075,0
71,-26.59863837,1.995643939,546064836,1.0,4.964999999999996,0
72,-26.59863837,1.995643939,904039471,0.0,-1.2529999999999992,0
73,-26.59863837,1.995643939,945098209,0.0,-1.4239999999999877,0
74,-26.43197171,-1.004356061,696039965,1.0,3.2080000000000246,0
75,-26.43197171,0.995643939,452249694,1.0,3.096000000000003,0
76,-26.26530504,-2.0043560609999997,129490812,0.0,-1.4260000000000062,0
77,-26.26530504,-2.0043560609999997,147547787,0.0,-1.4510000000000123,0
78,-26.09863837,-0.004356061,97123322,1.0,1.0,0
79,-26.09863837,-0.004356061,534449063,1.0,1.3220000000000025,0
80,-26.09863837,-0.004356061,945098209,1.0,2.005999999999979,0
81,-26.09863837,-0.004356061,949645864,1.0,1.3279999999999854,0
82,-25.93197171,1.995643939,968634301,1.0,1.103999999999999,0
83,-25.84863837,-0.004356061,504663288,0.0,-7.369000000000045,0
84,-25.59863837,-2.0043560609999997,130941034,1.0,1.0539999999999872,0
85,-25.59863837,-2.0043560609999997,696039965,1.0,4.666000000000006,0
86,-25.59863837,-2.0043560609999997,909861321,0.0,-1.471999999999988,0
87,-25.59863837,-0.004356061,933260573,1.0,1.1059999999999954,0
88,-25.59863837,3.995643939,294041592,1.0,4.128999999999959,0
89,-24.93197171,1.995643939,349171132,1.0,1.7839999999999934,0
90,-24.93197171,1.995643939,642346147,0.0,-1.1170000000000033,0
91,-24.93197171,1.995643939,933260573,1.0,1.0280000000000085,0
92,-24.59863837,-2.0043560609999997,3964964,0.0,-1.0489999999999913,0
93,-24.59863837,-2.0043560609999997,911960296,1.0,1.4519999999999984,0
94,-24.59863837,-2.0043560609999997,931420970,1.0,1.3189999999999957,0
95,-24.59863837,-0.004356061,97123322,1.0,1.0,0
96,-24.59863837,-0.004356061,294041592,0.0,-5.172000000000023,0
97,-24.59863837,-0.004356061,449943813,1.0,1.2380000000000095,0
98,-24.59863837,-0.004356061,657894484,1.0,1.7140000000000215,0
99,-24.59863837,1.995643939,43020357,0.0,-1.4809999999999952,0
100,-24.43197171,-1.004356061,355043712,1.0,3.134000000000011,0
101,-24.43197171,0.995643939,923162466,1.0,3.205999999999973,0
102,-24.34863837,-2.0043560609999997,294041592,0.0,-5.469999999999967,0
103,-24.34863837,-2.0043560609999997,657894484,1.0,4.320999999999963,0
104,-24.26530504,-2.0043560609999997,43020357,1.0,1.206000000000008,0
105,-24.26530504,-2.0043560609999997,92774005,1.0,1.785999999999977,0
106,-24.26530504,-2.0043560609999997,218675715,0.0,-1.777000000000013,0
107,-24.26530504,-2.0043560609999997,367119634,1.0,1.275999999999997,0
108,-24.26530504,0.995643939,492518259,0.0,-3.7760000000000202,0
109,-24.09863837,-1.004356061,657894484,1.0,2.718000000000006,0
110,-24.09863837,-0.004356061,455194813,0.0,-2.1180000000000208,0
111,-24.09863837,-0.004356061,923162466,0.0,-1.0249999999999906,0
112,-23.93197171,1.995643939,130271607,0.0,-1.1499999999999893,0
113,-23.84863837,2.995643939,894143700,1.0,3.761999999999959,0
114,-23.59863837,-2.0043560609999997,336172395,0.5,0.024499999999999852,0
115,-23.59863837,-2.0043560609999997,933260573,1.0,2.402000000000021,0
116,-23.43197171,-1.004356061,504663288,0.0,-11.591999999999945,0
117,-23.43197171,0.995643939,218675715,0.0,-5.8409999999999345,0
118,-23.26530504,-2.0043560609999997,455717130,0.0,-1.0969999999999906,0
119,-23.26530504,-2.0043560609999997,933260573,1.0,2.0610000000000133,0
120,-23.26530504,-2.0043560609999997,949645864,1.0,1.3330000000000026,0
121,-23.26530504,-0.004356061,92774005,1.0,4.487000000000038,0
122,-23.09863837,-0.004356061,43020357,0.0,-2.1509999999999847,0
123,-23.09863837,-0.004356061,75969320,1.0,1.1089999999999955,0
124,-23.09863837,-0.004356061,657894484,1.0,2.091999999999992,0
125,-23.09863837,0.995643939,657894484,0.0,-2.7780000000000156,0
126,-22.93197171,0.995643939,657894484,1.0,3.4439999999999737,0
127,-22.93197171,1.995643939,840480197,0.0,-1.3690000000000175,0
128,-22.93197171,1.995643939,904039471,0.0,-1.0629999999999915,0
129,-22.59863837,-4.004356061,278773301,1.0,4.115000000000007,0
130,-22.59863837,-2.0043560609999997,218675715,0.0,-1.7640000000000082,0
131,-22.59863837,-2.0043560609999997,251653297,1.0,1.4560000000000095,0
132,-22.59863837,-0.004356061,102783161,1.0,1.1180000000000005,0
133,-22.59863837,-0.004356061,589703985,1.0,1.0,0
134,-22.59863837,-0.004356061,923162466,0.0,-1.142999999999991,0
135,-22.59863837,0.995643939,218675715,0.0,-3.0799999999999876,0
136,-22.59863837,1.995643939,176326342,0.0,-1.6430000000000025,0
137,-22.59863837,1.995643939,650974545,1.0,1.623000000000013,0
138,-22.59863837,1.995643939,949645864,1.0,1.4260000000000062,0
139,-22.59863837,3.995643939,245315813,0.0,-4.0560000000000285,0
140,-22.26530504,-2.0043560609999997,923162466,0.0,-1.0400000000000083,0
141,-22.26530504,-2.0043560609999997,949645864,1.0,1.3150000000000104,0
142,-22.26530504,0.995643939,192065971,1.0,3.7719999999999816,0
143,-22.26530504,1.995643939,97123322,0.0,-1.0450000000000044,0
144,-22.26530504,1.995643939,749079099,1.0,1.7680000000000042,0
145,-22.09863837,-5.004356061,504663288,0.0,-5.7300000000000155,0
146,-22.09863837,-3.004356061,664438269,1.0,2.928000000000032,0
147,-22.09863837,-0.004356061,251653297,1.0,1.563999999999993,0
148,-22.09863837,-0.004356061,449943813,1.0,1.4550000000000085,0
149,-22.09863837,-0.004356061,492518259,1.0,1.2880000000000082,0
150,-22.09863837,-0.004356061,504663288,0.0,-2.038999999999989,0
151,-22.09863837,-0.004356061,578711405,1.0,1.4880000000000173,0
152,-22.09863837,-0.004356061,605713945,0.0,-1.0799999999999972,0
153,-22.09863837,-0.004356061,860810996,1.0,1.5510000000000093,0
154,-22.09863837,1.995643939,2884955,0.0,-4.556000000000029,0
155,-21.93197171,-2.0043560609999997,507157861,1.0,1.2619999999999896,0
156,-21.93197171,1.995643939,904039471,0.0,-1.2529999999999992,0
157,-21.84863837,-3.004356061,504663288,0.0,-3.573000000000031,0
158,-21.59863837,-3.004356061,657894484,0.0,-3.1610000000000027,0
159,-21.59863837,-2.0043560609999997,251653297,1.0,1.471000000000003,0
160,-21.59863837,-2.0043560609999997,642346147,1.0,1.1009999999999993,0
161,-21.59863837,-1.004356061,218675715,0.0,-2.6140000000000154,0
162,-21.59863837,-0.004356061,97123322,1.0,1.0529999999999975,0
163,-21.59863837,-0.004356061,224184422,1.0,2.480999999999995,0
164,-21.59863837,-0.004356061,278773301,1.0,4.731000000000026,0
165,-21.59863837,-0.004356061,299760590,1.0,1.8590000000000122,0
166,-21.59863837,-0.004356061,324908376,1.0,1.702999999999983,0
167,-21.59863837,-0.004356061,904039471,0.0,-1.0319999999999934,0
168,-21.59863837,-0.004356061,933260573,1.0,1.4650000000000019,0
169,-21.59863837,-0.004356061,968634301,0.0,-1.4400000000000144,0
170,-21.59863837,1.995643939,294041592,1.0,2.280999999999974,0
171,-21.59863837,1.995643939,331590088,1.0,1.4750000000000134,0
172,-21.59863837,1.995643939,628308431,0.0,-1.695000000000016,0
173,-21.59863837,1.995643939,650974545,0.0,-1.855999999999995,0
174,-21.43197171,-5.004356061,891299842,1.0,6.304000000000053,0
175,-21.43197171,-1.004356061,968634301,1.0,3.4939999999999767,0
176,-21.43197171,0.995643939,683861923,1.0,3.5689999999999733,0
177,-21.34863837,2.995643939,770588123,0.0,-2.5460000000000274,0
178,-21.26530504,-2.0043560609999997,97123322,0.0,-1.190999999999994,0
179,-21.26530504,-1.004356061,218675715,0.0,-3.474999999999972,0
180,-21.26530504,1.995643939,894143700,0.0,-1.6150000000000073,0
181,-21.09863837,-4.004356061,333010087,1.0,13.207999999999897,0
182,-21.09863837,-3.004356061,874342939,1.0,2.8070000000000124,0
183,-21.09863837,-2.0043560609999997,894143700,1.0,4.371000000000044,0
184,-21.09863837,-0.004356061,48595352,1.0,7.943999999999966,0
185,-21.09863837,-0.004356061,129490812,0.0,-1.3339999999999899,0
186,-21.09863837,-0.004356061,218675715,0.0,-1.9750000000000156,0
187,-21.09863837,-0.004356061,251653297,1.0,2.008000000000015,0
188,-21.09863837,-0.004356061,650974545,1.0,1.5810000000000102,0
189,-20.93197171,-1.004356061,910114803,1.0,3.753999999999964,0
190,-20.93197171,-0.004356061,933260573,1.0,4.4690000000000385,0
191,-20.93197171,1.995643939,589703985,0.0,-1.5589999999999973,0
192,-20.93197171,1.995643939,683861923,0.0,-1.491999999999993,0
193,-20.93197171,1.995643939,840480197,1.0,1.275999999999997,0
194,-20.84863837,2.995643939,120939072,1.0,2.6500000000000083,0
195,-20.59863837,-2.0043560609999997,97123322,0.0,-1.0,0
196,-20.59863837,-0.004356061,41833230,1.0,1.6059999999999952,0
197,-20.59863837,-0.004356061,718176674,1.0,2.2540000000000036,0
198,-20.59863837,-0.004356061,904039471,0.0,-1.0910000000000055,0
199,-20.59863837,-0.004356061,933260573,1.0,2.2100000000000155,0
200,-20.59863837,-0.004356061,968634301,0.5,0.2424999999999964,0
201,-20.59863837,1.995643939,828632181,1.0,1.1329999999999971,0
202,-20.59863837,1.995643939,984661157,1.0,2.1340000000000092,0
203,-20.51530504,0.995643939,840480197,0.0,-6.17500000000004,0
204,-20.34863837,-3.004356061,657894484,0.0,-2.8179999999999876,0
205,-20.26530504,-2.0043560609999997,911960296,0.0,-1.6130000000000204,0
206,-20.26530504,-1.004356061,218675715,0.0,-3.1120000000000196,0
207,-20.26530504,-1.004356061,312902548,0.0,-3.3699999999999597,0
208,-20.26530504,-1.004356061,455717130,1.0,2.737000000000011,0
209,-20.09863837,-0.004356061,578711405,1.0,1.5019999999999893,0
210,-20.09863837,-0.004356061,630235377,1.0,1.5710000000000173,0
211,-20.09863837,-0.004356061,673728725,1.0,7.610999999999969,0
212,-20.09863837,-0.004356061,968634301,0.0,-1.469000000000012,0
213,-20.09863837,2.995643939,933260573,1.0,3.608999999999975,0
214,-19.93197171,-2.0043560609999997,97123322,0.0,-1.0,0
215,-19.93197171,-2.0043560609999997,979660929,1.0,1.0,0
216,-19.93197171,-1.004356061,324908376,1.0,3.182000000000013,0
217,-19.93197171,-0.004356061,696039965,1.0,4.634000000000012,0
218,-19.93197171,1.995643939,923162466,1.0,1.1829999999999952,0
219,-19.89863837,2.995643939,789515489,0.0,-6.072000000000001,0
220,-19.59863837,-2.0043560609999997,2884955,1.0,1.7210000000000032,0
221,-19.59863837,-2.0043560609999997,949645864,1.0,1.366499999999983,0
222,-19.59863837,-0.004356061,578711405,1.0,1.563999999999993,0
223,-19.59863837,-0.004356061,778697233,0.0,-1.6799999999999842,0
224,-19.59863837,-0.004356061,889540573,0.0,-1.4360000000000046,0
225,-19.59863837,1.995643939,97123322,0.0,-1.1329999999999971,0
226,-19.59863837,1.995643939,931420970,0.0,-1.0740000000000063,0
227,-19.49863837,-1.004356061,294041592,0.0,-8.789999999999969,0
228,-19.43197171,-5.004356061,985750851,1.0,6.172000000000023,0
229,-19.43197171,0.995643939,657894484,0.0,-2.971000000000003,0
230,-19.34863837,-6.004356061,815555952,1.0,10.560999999999977,0
231,-19.26530504,-4.004356061,717256200,1.0,7.84200000000007,0
232,-19.26530504,-2.0043560609999997,254632445,1.0,1.0799999999999972,0
233,-19.26530504,-2.0043560609999997,657894484,1.0,1.6639999999999895,0
234,-19.26530504,-0.004356061,396122776,1.0,4.526000000000006,0
235,-19.26530504,1.995643939,652231699,0.0,-2.3999999999999995,0
236,-19.26530504,1.995643939,949645864,0.0,-1.681000000000012,0
237,-19.24863837,-1.004356061,294041592,1.0,9.237000000000059,0
238,-19.09863837,-1.004356061,218675715,0.0,-3.3879999999999755,0
239,-19.09863837,-0.004356061,56470734,0.0,-2.1679999999999997,0
240,-19.09863837,-0.004356061,130941034,1.0,1.4565000000000048,0
241,-19.09863837,-0.004356061,578711405,1.0,1.3659999999999937,0
242,-19.09863837,-0.004356061,904039471,0.0,-1.0500000000000065,0
243,-19.09863837,-0.004356061,933260573,0.0,-1.9339999999999917,0
244,-19.09863837,-0.004356061,956660069,0.0,-1.5890000000000188,0
245,-19.09863837,0.995643939,3964964,1.0,2.9000000000000155,0
246,-19.09863837,0.995643939,75969320,1.0,3.2319999999999847,0
247,-19.04863837,-1.004356061,294041592,0.0,-8.757000000000012,0
248,-18.99863837,-4.004356061,909861321,1.0,4.484999999999971,0
249,-18.93197171,-2.0043560609999997,96226407,1.0,2.1180000000000208,0
250,-18.93197171,-2.0043560609999997,97123322,1.0,1.0720000000000025,0
251,-18.93197171,-2.0043560609999997,251653297,1.0,2.4339999999999873,0
252,-18.93197171,-2.0043560609999997,770588123,1.0,2.4749999999999974,0
253,-18.93197171,-1.004356061,218675715,0.0,-3.280999999999967,0
254,-18.93197171,1.995643939,97123322,1.0,1.0799999999999972,0
255,-18.93197171,1.995643939,923162466,0.0,-1.5424999999999967,0
256,-18.84863837,2.995643939,546064836,0.0,-3.204999999999985,0
257,-18.76530504,0.995643939,224184422,1.0,5.585999999999951,0
258,-18.76530504,0.995643939,789515489,0.0,-3.205999999999973,0
259,-18.59863837,-3.004356061,628308431,1.0,3.329999999999983,0
260,-18.59863837,-2.0043560609999997,97123322,1.0,2.405999999999973,0
261,-18.59863837,-2.0043560609999997,446421117,1.0,1.1299999999999961,0
262,-18.59863837,-2.0043560609999997,923162466,1.0,4.272999999999971,0
263,-18.59863837,-2.0043560609999997,968634301,0.0,-1.4370000000000094,0
264,-18.59863837,-0.004356061,2884955,1.0,1.905999999999979,0
265,-18.59863837,-0.004356061,92774005,1.0,1.5240000000000007,0
266,-18.59863837,-0.004356061,933260573,1.0,1.6730000000000016,0
267,-18.59863837,0.995643939,522579064,1.0,3.742999999999985,0
268,-18.59863837,1.995643939,41833230,0.0,-1.5589999999999973,0
269,-18.59863837,1.995643939,949879914,0.0,-1.0899999999999916,0
270,-18.53197171,-2.0043560609999997,504663288,0.0,-8.487999999999948,0
271,-18.26530504,-2.0043560609999997,956660069,0.0,-1.3129999999999908,0
272,-18.26530504,-1.004356061,657894484,0.0,-3.6510000000000185,0
273,-18.26530504,-1.004356061,979660929,0.0,-3.166999999999976,0
274,-18.26530504,0.995643939,278773301,1.0,3.348999999999986,0
275,-18.26530504,1.995643939,605713945,1.0,1.0819999999999945,0
276,-18.26530504,1.995643939,889540573,0.0,-1.0369999999999915,0
277,-18.26530504,1.995643939,968634301,0.0,-2.3500000000000023,0
278,-18.09863837,-2.0043560609999997,218675715,0.0,-4.306000000000029,0
279,-18.09863837,-2.0043560609999997,455717130,1.0,4.215999999999949,0
280,-18.09863837,-0.004356061,41833230,1.0,1.0330000000000048,0
281,-18.09863837,-0.004356061,97123322,1.0,1.0,0
282,-18.09863837,-0.004356061,134057190,1.0,1.8980000000000172,0
283,-18.09863837,-0.004356061,657894484,0.0,-1.9650000000000096,0
284,-18.09863837,-0.004356061,933260573,1.0,1.5739999999999903,0
285,-18.09863837,-0.004356061,961875421,0.0,-1.2089999999999943,0
286,-18.09863837,0.995643939,218675715,0.0,-3.7190000000000354,0
287,-17.93197171,-2.0043560609999997,563121476,0.0,-1.2659999999999993,0
288,-17.93197171,-2.0043560609999997,652231699,1.0,2.0130000000000114,0
289,-17.93197171,-2.0043560609999997,923162466,0.0,-1.2640000000000076,0
290,-17.93197171,-0.004356061,891299842,1.0,4.049999999999968,0
291,-17.93197171,0.995643939,657894484,0.0,-3.0440000000000236,0
292,-17.84863837,-0.004356061,964326783,1.0,7.865999999999987,0
293,-17.76530504,-1.004356061,294041592,0.0,-3.207000000000035,0
294,-17.69863837,-3.004356061,514268702,1.0,5.8219999999999965,0
295,-17.59863837,-2.0043560609999997,120939072,1.0,1.2259999999999993,0
296,-17.59863837,-2.0043560609999997,396122776,1.0,2.178000000000004,0
297,-17.59863837,-2.0043560609999997,626227255,0.0,-1.8150000000000226,0
298,-17.59863837,-0.004356061,120939072,1.0,1.1059999999999954,0
299,-17.59863837,-0.004356061,224184422,1.0,1.9560000000000115,0
300,-17.59863837,-0.004356061,294041592,1.0,5.422000000000023,0
301,-17.59863837,-0.004356061,778697233,1.0,1.7820000000000127,0
302,-17.59863837,1.995643939,74263281,0.0,-2.394000000000005,0
303,-17.59863837,1.995643939,254632445,0.0,-1.620000000000004,0
304,-17.43197171,-1.004356061,717256200,1.0,3.217000000000029,0
305,-17.43197171,0.995643939,192065971,1.0,3.1620000000000203,0
306,-17.34863837,2.995643939,312902548,0.0,-3.0809999999999755,0
307,-17.33197171,-2.0043560609999997,374999420,0.0,-7.449000000000044,0
308,-17.29863837,-3.004356061,696039965,1.0,6.373000000000038,0
309,-17.26530504,-4.004356061,933260573,1.0,7.317000000000006,0
310,-17.26530504,-2.0043560609999997,642346147,1.0,1.096000000000003,0
311,-17.26530504,-2.0043560609999997,923162466,0.0,-1.2859999999999898,0
312,-17.26530504,-1.004356061,504663288,0.0,-3.182000000000013,0
313,-17.26530504,1.995643939,147547787,0.0,-1.4980000000000104,0
314,-17.26530504,1.995643939,652231699,0.0,-2.2000000000000206,0
315,-17.26530504,1.995643939,968634301,0.0,-1.4629999999999959,0
316,-17.26530504,1.995643939,971172922,1.0,1.1329999999999971,0
317,-17.19863837,-4.004356061,504663288,0.0,-4.940000000000043,0
318,-17.09863837,-3.004356061,294041592,1.0,2.825000000000026,0
319,-17.09863837,-1.004356061,449943813,1.0,3.87599999999998,0
320,-17.09863837,-0.004356061,97123322,0.0,-1.0269999999999904,0
321,-17.09863837,-0.004356061,103303422,0.0,-1.0,0
322,-17.09863837,-0.004356061,254632445,1.0,1.2939999999999914,0
323,-17.09863837,-0.004356061,336172395,0.0,-1.0659999999999898,0
324,-17.09863837,-0.004356061,507157861,1.0,1.9550000000000167,0
325,-17.09863837,-0.004356061,956660069,1.0,1.2200000000000155,0
326,-16.99863837,-3.004356061,134057190,1.0,5.755000000000069,0
327,-16.93197171,-2.0043560609999997,41833230,0.0,-1.4089999999999938,0
328,-16.93197171,-2.0043560609999997,945098209,1.0,2.0720000000000014,0
329,-16.93197171,-1.004356061,894143700,1.0,2.8369999999999904,0
330,-16.93197171,0.995643939,92774005,1.0,6.036000000000029,0
331,-16.93197171,1.995643939,889540573,1.0,1.0450000000000044,0
332,-16.84863837,-2.0043560609999997,294041592,0.0,-5.130000000000064,0
333,-16.84863837,-1.004356061,504663288,0.0,-9.756000000000004,0
334,-16.84863837,1.995643939,74263281,0.0,-4.920000000000035,0
335,-16.84863837,2.995643939,630235377,0.0,-2.698000000000011,0
336,-16.76530504,-1.004356061,770588123,0.0,-2.5879999999999828,0
337,-16.76530504,0.995643939,968634301,1.0,2.701000000000017,0
338,-16.76530504,2.995643939,673728725,1.0,9.14899999999996,0
339,-16.59863837,-4.004356061,224184422,1.0,4.902000000000032,0
340,-16.59863837,-2.0043560609999997,97123322,0.0,-1.0,0
341,-16.59863837,-2.0043560609999997,130941034,0.0,-1.0,0
342,-16.59863837,-2.0043560609999997,507740391,0.0,-2.321999999999989,0
343,-16.59863837,-2.0043560609999997,933260573,1.0,1.0,0
344,-16.59863837,-0.004356061,43020357,1.0,1.6009999999999993,0
345,-16.59863837,-0.004356061,48977487,1.0,1.711999999999991,0
346,-16.59863837,-0.004356061,102783161,0.0,-1.3020000000000118,0
347,-16.59863837,-0.004356061,218675715,1.0,5.067000000000006,0
348,-16.59863837,-0.004356061,294041592,0.0,-7.632000000000038,0
349,-16.59863837,-0.004356061,628308431,0.0,-4.296000000000025,0
350,-16.59863837,-0.004356061,652231699,1.0,2.0979999999999825,0
351,-16.59863837,-0.004356061,718176674,0.0,-1.980999999999995,0
352,-16.59863837,-0.004356061,909861321,1.0,1.3139999999999985,0
353,-16.59863837,0.995643939,218675715,0.0,-3.653999999999997,0
354,-16.59863837,0.995643939,628308431,0.0,-2.796000000000029,0
355,-16.59863837,3.995643939,294041592,1.0,5.431999999999958,0
356,-16.54863837,0.995643939,504663288,0.0,-8.704999999999949,0
357,-16.46530504,-2.0043560609999997,716236442,1.0,7.92399999999998,0
358,-16.43197171,0.995643939,224184422,1.0,3.7580000000000253,0
359,-16.43197171,0.995643939,968634301,0.0,-2.578999999999972,0
360,-16.39863837,2.995643939,716236442,0.0,-5.8409999999999345,0
361,-16.34863837,-3.004356061,218675715,0.0,-2.640000000000013,0
362,-16.34863837,-2.0043560609999997,2884955,1.0,4.83699999999999,0
363,-16.34863837,-2.0043560609999997,218675715,0.0,-4.273999999999941,0
364,-16.34863837,2.995643939,218675715,1.0,3.4110000000000067,0
365,-16.26530504,-2.0043560609999997,374999420,1.0,1.839000000000024,0
366,-16.26530504,-2.0043560609999997,968634301,0.5,-0.3259999999999962,0
367,-16.26530504,-1.004356061,96226407,1.0,3.6679999999999557,0
368,-16.26530504,0.995643939,367119634,1.0,3.6869999999999603,0
369,-16.14863837,-1.004356061,504663288,0.0,-9.789000000000046,0
370,-16.09863837,-0.004356061,664438269,1.0,2.1810000000000183,0
371,-16.09863837,-0.004356061,904039471,1.0,1.1999999999999997,0
372,-16.09863837,-0.004356061,910114803,0.0,-1.4099999999999993,0
373,-16.09863837,-0.004356061,923162466,0.0,-1.2960000000000063,0
374,-16.09863837,-0.004356061,945098209,1.0,1.8709999999999873,0
375,-15.96530504,0.995643939,294041592,1.0,12.981999999999974,0
376,-15.93197171,-2.0043560609999997,294041592,0.0,-1.0,0
377,-15.93197171,-2.0043560609999997,432332461,1.0,1.5529999999999975,0
378,-15.93197171,-2.0043560609999997,589703985,1.0,1.0,0
379,-15.93197171,-2.0043560609999997,945098209,1.0,1.6589999999999936,0
380,-15.93197171,-2.0043560609999997,949879914,0.0,-1.511999999999982,0
381,-15.93197171,0.995643939,34984274,0.0,-3.6730000000000014,0
382,-15.93197171,1.995643939,147547787,0.0,-1.453999999999989,0
383,-15.93197171,1.995643939,749079099,1.0,1.7699999999999885,0
384,-15.93197171,1.995643939,755075290,1.0,1.0939999999999983,0
385,-15.93197171,1.995643939,840480197,0.0,-1.3350000000000015,0
386,-15.88435266,-5.004356061,815555952,1.0,9.498999999999892,0
387,-15.84863837,-3.004356061,657894484,1.0,2.855000000000014,0
388,-15.84863837,-2.0043560609999997,507740391,1.0,4.632000000000024,0
389,-15.76530504,0.995643939,278773301,1.0,5.753000000000026,0
390,-15.59863837,-3.004356061,312902548,1.0,2.9990000000000188,0
391,-15.59863837,-3.004356061,720435955,1.0,5.882999999999961,0
392,-15.59863837,-2.0043560609999997,189660560,1.0,4.684000000000007,0
393,-15.59863837,-2.0043560609999997,350745134,1.0,2.289999999999984,0
394,-15.59863837,-2.0043560609999997,432332461,1.0,1.5510000000000093,0
395,-15.59863837,-2.0043560609999997,546064836,1.0,1.7540000000000124,0
396,-15.59863837,-2.0043560609999997,628308431,1.0,4.076000000000018,0
397,-15.59863837,-1.004356061,770588123,1.0,3.0409999999999973,0
398,-15.59863837,-0.004356061,218675715,0.0,-7.7060000000000395,0
399,-15.59863837,-0.004356061,374999420,1.0,1.9800000000000122,0
400,-15.59863837,-0.004356061,504663288,0.0,-10.19300000000012,0
401,-15.59863837,-0.004356061,514268702,1.0,1.8060000000000138,0
402,-15.59863837,-0.004356061,630235377,1.0,1.187999999999991,0
403,-15.59863837,-0.004356061,657894484,0.0,-2.2169999999999983,0
404,-15.59863837,-0.004356061,923162466,0.0,-1.1279999999999943,0
405,-15.59863837,-0.004356061,949645864,1.0,1.2549999999999961,0
406,-15.59863837,1.995643939,41833230,0.0,-1.0600000000000003,0
407,-15.59863837,1.995643939,130271607,0.0,-1.0389999999999908,0
408,-15.59863837,1.995643939,252234006,0.0,-1.509999999999993,0
409,-15.59863837,1.995643939,968634301,0.0,-1.6829999999999945,0
410,-15.59863837,2.995643939,931420970,0.0,-2.9529999999999794,0
411,-15.43197171,0.995643939,324908376,1.0,3.1500000000000212,0
412,-15.39863837,-0.004356061,586071473,1.0,10.766999999999907,0
413,-15.34863837,-2.0043560609999997,815555952,1.0,4.760999999999977,0
414,-15.29863837,2.995643939,522579064,1.0,6.809000000000067,0
415,-15.26530504,-2.0043560609999997,176326342,1.0,1.5829999999999977,0
416,-15.26530504,-2.0043560609999997,514268702,1.0,1.8450000000000193,0
417,-15.26530504,-0.004356061,696039965,1.0,5.04400000000001,0
418,-15.26530504,-0.004356061,979660929,0.0,-5.137999999999957,0
419,-15.26530504,1.995643939,961875421,0.0,-1.2619999999999896,0
420,-15.09863837,-0.004356061,97123322,0.0,-1.3139999999999985,0
421,-15.09863837,-0.004356061,218675715,0.0,-2.3620000000000005,0
422,-15.09863837,-0.004356061,294041592,0.0,-1.4189999999999907,0
423,-15.09863837,-0.004356061,502901314,1.0,2.139999999999993,0
424,-15.09863837,-0.004356061,507157861,1.0,1.676000000000012,0
425,-15.09863837,-0.004356061,514268702,0.0,-1.7390000000000072,0
426,-15.09863837,-0.004356061,578711405,1.0,1.2670000000000072,0
427,-15.09863837,-0.004356061,755075290,0.0,-1.0299999999999867,0
428,-15.09863837,-0.004356061,779970594,0.0,-1.5529999999999975,0
429,-15.09863837,-0.004356061,889540573,0.0,-1.1699999999999995,0
430,-15.09863837,-0.004356061,911960296,1.0,1.3300000000000054,0
431,-15.09863837,-0.004356061,956660069,1.0,1.8719999999999863,0
432,-15.09863837,0.995643939,299760590,1.0,3.2100000000000217,0
433,-15.09863837,1.995643939,717256200,1.0,4.801999999999986,0
434,-15.09863837,2.995643939,452249694,0.0,-3.1199999999999655,0
435,-14.93197171,-2.0043560609999997,630235377,1.0,1.8029999999999975,0
436,-14.93197171,-1.004356061,586071473,1.0,2.9670000000000236,0
437,-14.93197171,-0.004356061,41833230,1.0,4.80699999999998,0
438,-14.93197171,1.995643939,628308431,0.0,-1.8849999999999925,0
439,-14.84863837,-3.004356061,961875421,1.0,3.045000000000012,0
440,-14.84863837,2.995643939,331590088,0.0,-3.1389999999999696,0
441,-14.84863837,2.995643939,923162466,0.0,-2.9700000000000224,0
442,-14.83197171,6.995643939,189660560,0.0,-15.038999999999945,0
443,-14.76530504,-1.004356061,657894484,0.0,-3.416999999999972,0
444,-14.76530504,0.995643939,34984274,1.0,3.66300000000001,0
445,-14.68197171,-1.004356061,218675715,0.0,-6.724999999999942,0
446,-14.59863837,-3.004356061,504663288,0.0,-5.585999999999951,0
447,-14.59863837,-2.0043560609999997,103303422,1.0,1.0,0
448,-14.59863837,-2.0043560609999997,134057190,1.0,2.4280000000000155,0
449,-14.59863837,-2.0043560609999997,351777009,1.0,1.093000000000004,0
450,-14.59863837,-2.0043560609999997,446421117,1.0,1.0049999999999961,0
451,-14.59863837,-2.0043560609999997,683861923,0.0,-1.7619999999999765,0
452,-14.59863837,-2.0043560609999997,716236442,1.0,1.9619999999999909,0
453,-14.59863837,-2.0043560609999997,956660069,0.0,-1.0310000000000046,0
454,-14.59863837,-1.004356061,657894484,0.0,-2.805000000000001,0
455,-14.59863837,-0.004356061,43020357,1.0,1.0830000000000102,0
456,-14.59863837,-0.004356061,252234006,1.0,1.4510000000000123,0
457,-14.59863837,-0.004356061,254632445,0.0,-1.601999999999984,0
458,-14.59863837,-0.004356061,657894484,0.0,-2.398999999999984,0
459,-14.59863837,-0.004356061,683861923,0.0,-1.8650000000000075,0
460,-14.59863837,-0.004356061,904039471,1.0,1.1340000000000048,0
461,-14.59863837,0.995643939,504663288,1.0,3.166999999999976,0
462,-14.59863837,1.995643939,130941034,0.0,-1.4660000000000062,0
463,-14.59863837,1.995643939,147547787,0.0,-1.5679999999999907,0
464,-14.59863837,1.995643939,367119634,0.0,-1.3200000000000065,0
465,-14.59863837,1.995643939,514268702,0.0,-1.6680000000000057,0
466,-14.59863837,1.995643939,891299842,0.0,-5.436999999999941,0
467,-14.59863837,1.995643939,984661157,1.0,2.333000000000003,0
468,-14.53197171,1.995643939,985750851,1.0,7.697999999999958,0
469,-14.46530504,-2.0043560609999997,449943813,1.0,7.378000000000054,0
470,-14.45578123,-0.004356061,504663288,0.0,-16.112000000000066,0
471,-14.43197171,-1.004356061,294041592,1.0,3.4380000000000353,0
472,-14.43197171,0.995643939,120939072,1.0,3.2680000000000153,0
473,-14.43197171,0.995643939,134057190,0.0,-2.957000000000029,0
474,-14.43197171,0.995643939,218675715,0.0,-2.9970000000000114,0
475,-14.42006694,2.995643939,664438269,1.0,12.04399999999993,0
476,-14.39863837,2.995643939,586071473,1.0,6.815999999999933,0
477,-14.34863837,-3.004356061,561564728,1.0,3.454999999999981,0
478,-14.26530504,-2.0043560609999997,251653297,1.0,1.7720000000000171,0
479,-14.26530504,-2.0043560609999997,367119634,1.0,2.0720000000000014,0
480,-14.26530504,-2.0043560609999997,718176674,1.0,1.2830000000000068,0
481,-14.26530504,-2.0043560609999997,889540573,0.0,-1.1000000000000103,0
482,-14.26530504,-2.0043560609999997,931420970,1.0,1.021999999999994,0
483,-14.26530504,-1.004356061,252234006,0.0,-3.337999999999979,0
484,-14.26530504,-1.004356061,652231699,0.0,-2.7619999999999645,0
485,-14.26530504,-1.004356061,720435955,1.0,6.403999999999997,0
486,-14.26530504,0.995643939,650974545,0.0,-3.644999999999985,0
487,-14.26530504,0.995643939,860810996,0.5,0.025999999999999943,0
488,-14.26530504,1.995643939,796639530,0.0,-2.211000000000011,0
489,-14.19863837,3.995643939,683861923,0.0,-4.028999999999997,0
490,-14.09863837,-2.0043560609999997,333010087,1.0,4.6050000000000155,0
491,-14.09863837,-2.0043560609999997,394422911,1.0,4.746000000000048,0
492,-14.09863837,-2.0043560609999997,433311086,1.0,4.176999999999963,0
493,-14.09863837,-0.004356061,43020357,1.0,1.8450000000000193,0
494,-14.09863837,-0.004356061,103303422,1.0,2.135999999999988,0
495,-14.09863837,-0.004356061,251653297,1.0,1.4619999999999915,0
496,-14.09863837,-0.004356061,252234006,1.0,1.9930000000000232,0
497,-14.09863837,-0.004356061,396122776,1.0,7.722000000000088,0
498,-14.09863837,-0.004356061,449943813,1.0,2.2670000000000274,0
499,-14.09863837,-0.004356061,650974545,1.0,1.832999999999994,0
500,-14.09863837,-0.004356061,779970594,1.0,1.0120000000000002,0
501,-14.09863837,-0.004356061,904039471,1.0,1.2179999999999995,0
502,-14.09863837,-0.004356061,923162466,0.0,-2.0689999999999826,0
503,-14.09863837,-0.004356061,956660069,1.0,1.9619999999999909,0
504,-14.09863837,0.995643939,874342939,0.0,-3.8710000000000377,0
505,-14.09863837,0.995643939,933260573,1.0,2.8789999999999822,0
506,-13.99863837,1.995643939,100416772,1.0,7.918000000000032,0
507,-13.93197171,-2.0043560609999997,48595352,1.0,1.6870000000000098,0
508,-13.93197171,-2.0043560609999997,48977487,1.0,1.875999999999984,0
509,-13.93197171,-2.0043560609999997,102783161,1.0,1.0790000000000022,0
510,-13.93197171,-2.0043560609999997,129490812,0.0,-1.0620000000000085,0
511,-13.93197171,-2.0043560609999997,130271607,0.0,-1.0,0
512,-13.93197171,-2.0043560609999997,224557592,1.0,1.8410000000000066,0
513,-13.93197171,-2.0043560609999997,251653297,1.0,1.5890000000000188,0
514,-13.93197171,-2.0043560609999997,455194813,1.0,1.5710000000000173,0
515,-13.93197171,-2.0043560609999997,630235377,0.0,-1.6130000000000204,0
516,-13.93197171,-2.0043560609999997,778697233,1.0,2.227999999999986,0
517,-13.93197171,-2.0043560609999997,931420970,1.0,1.3070000000000077,0
518,-13.93197171,-1.004356061,522579064,1.0,6.389999999999983,0
519,-13.93197171,-1.004356061,716236442,1.0,2.8279999999999794,0
520,-13.93197171,-0.004356061,294041592,0.0,-5.436000000000012,0
521,-13.93197171,0.995643939,961875421,0.0,-3.0719999999999645,0
522,-13.93197171,1.995643939,41833230,0.0,-1.6330000000000096,0
523,-13.93197171,1.995643939,252234006,1.0,1.2300000000000086,0
524,-13.93197171,1.995643939,299760590,1.0,1.8220000000000025,0
525,-13.93197171,1.995643939,336172395,0.0,-1.057000000000006,0
526,-13.84863837,-0.004356061,504663288,0.0,-7.286000000000033,0
527,-13.84863837,1.995643939,894143700,1.0,4.731000000000026,0
528,-13.84863837,2.995643939,923162466,0.0,-2.636999999999966,0
529,-13.76530504,0.995643939,396122776,0.0,-3.4770000000000265,0
530,-13.74149551,1.995643939,96226407,1.0,13.393000000000026,0
531,-13.74149551,4.995643939,455717130,1.0,8.583999999999921,0
532,-13.68197171,0.995643939,717256200,1.0,6.625,0
533,-13.59863837,-2.0043560609999997,626227255,1.0,4.655000000000004,0
534,-13.59863837,-2.0043560609999997,683861923,1.0,1.9089999999999934,0
535,-13.59863837,-2.0043560609999997,733093513,1.0,1.696000000000018,0
536,-13.59863837,-2.0043560609999997,985750851,1.0,4.967000000000054,0
537,-13.59863837,-1.004356061,673728725,1.0,3.928000000000052,0
538,-13.59863837,-1.004356061,720435955,1.0,3.5640000000000254,0
539,-13.59863837,-0.004356061,56470734,0.0,-1.6009999999999993,0
540,-13.59863837,-0.004356061,103303422,1.0,1.0,0
541,-13.59863837,-0.004356061,130271607,1.0,1.041999999999988,0
542,-13.59863837,-0.004356061,176326342,1.0,1.6269999999999867,0
543,-13.59863837,-0.004356061,331590088,1.0,1.5109999999999966,0
544,-13.59863837,-0.004356061,652231699,1.0,5.054999999999986,0
545,-13.59863837,-0.004356061,657894484,1.0,4.71199999999999,0
546,-13.59863837,-0.004356061,749079099,1.0,1.8709999999999873,0
547,-13.59863837,-0.004356061,815555952,1.0,11.10900000000006,0
548,-13.59863837,-0.004356061,949645864,1.0,1.2599999999999933,0
549,-13.59863837,0.995643939,492518259,1.0,3.132000000000006,0
550,-13.59863837,1.995643939,504663288,1.0,4.929000000000043,0
551,-13.59863837,1.995643939,749079099,0.0,-1.7229999999999879,0
552,-13.59863837,1.995643939,889540573,0.0,-1.0,0
553,-13.59863837,1.995643939,894143700,1.0,5.217000000000056,0
554,-13.59863837,1.995643939,984661157,1.0,2.067000000000006,0
555,-13.59863837,2.995643939,176326342,0.0,-2.9320000000000124,0
556,-13.59863837,2.995643939,716236442,0.0,-3.4610000000000114,0
557,-13.59863837,3.995643939,218675715,1.0,5.240999999999988,0
558,-13.46530504,1.995643939,931420970,0.0,-8.168999999999956,0
559,-13.44863837,0.995643939,504663288,1.0,8.737999999999959,0
560,-13.43197171,-1.004356061,74263281,1.0,3.156999999999984,0
561,-13.43197171,-1.004356061,626227255,1.0,3.064000000000017,0
562,-13.34863837,-3.004356061,979660929,1.0,2.527000000000022,0
563,-13.34863837,1.995643939,874342939,0.0,-5.041000000000017,0
564,-13.34863837,3.995643939,324908376,1.0,14.018000000000026,0
565,-13.31292409,0.995643939,539422517,1.0,15.827000000000167,0
566,-13.26530504,-2.0043560609999997,650974545,1.0,1.7630000000000083,0
567,-13.26530504,-2.0043560609999997,968634301,0.0,-1.7110000000000105,0
568,-13.26530504,-2.0043560609999997,971172922,1.0,1.0330000000000048,0
569,-13.26530504,-1.004356061,452249694,1.0,3.7419999999999747,0
570,-13.26530504,0.995643939,48595352,1.0,3.38200000000001,0
571,-13.26530504,0.995643939,374844073,1.0,2.9760000000000346,0
572,-13.26530504,0.995643939,452249694,0.0,-2.9320000000000124,0
573,-13.26530504,0.995643939,652231699,0.0,-2.557999999999994,0
574,-13.26530504,1.995643939,3964964,1.0,1.0,0
575,-13.26530504,1.995643939,563121476,1.0,1.0,0
576,-13.26530504,1.995643939,770588123,0.0,-1.6390000000000082,0
577,-13.26530504,1.995643939,904039471,0.0,-1.0919999999999945,0
578,-13.17006694,-5.004356061,561564728,1.0,9.967999999999922,0
579,-13.12363837,-3.004356061,977170877,1.0,15.130000000000093,0
580,-13.09863837,-2.0043560609999997,218675715,0.0,-5.155000000000022,0
581,-13.09863837,-1.004356061,452249694,0.0,-5.820000000000034,0
582,-13.09863837,-1.004356061,657894484,0.0,-2.6839999999999855,0
583,-13.09863837,-1.004356061,733093513,1.0,2.583999999999992,0
584,-13.09863837,-0.004356061,130271607,0.0,-1.4109999999999856,0
585,-13.09863837,-0.004356061,408368411,0.0,-1.5739999999999903,0
586,-13.09863837,-0.004356061,446421117,1.0,1.0860000000000094,0
587,-13.09863837,-0.004356061,514268702,1.0,2.3440000000000265,0
588,-13.09863837,-0.004356061,696039965,1.0,2.375,0
589,-13.09863837,-0.004356061,778697233,0.0,-1.5399999999999938,0
590,-13.09863837,-0.004356061,923162466,0.0,-1.2290000000000034,0
591,-13.09863837,-0.004356061,956660069,1.0,1.3740000000000137,0
592,-13.09863837,-0.004356061,968634301,0.5,-0.2269999999999967,0
593,-13.09863837,0.995643939,933260573,1.0,2.6330000000000204,0
594,-12.99863837,-3.004356061,92774005,1.0,6.650000000000058,0
595,-12.93197171,-2.0043560609999997,75969320,1.0,1.0,0
596,-12.93197171,-2.0043560609999997,252234006,0.0,-1.9690000000000218,0
597,-12.93197171,-2.0043560609999997,351777009,0.0,-1.2610000000000026,0
598,-12.93197171,-2.0043560609999997,534449063,1.0,1.0,0
599,-12.93197171,-2.0043560609999997,933260573,1.0,1.3250000000000042,0
600,-12.93197171,-1.004356061,931420970,1.0,3.4190000000000316,0
601,-12.93197171,-0.004356061,224557592,0.0,-5.434000000000034,0
602,-12.93197171,1.995643939,336172395,0.0,-1.0769999999999984,0
603,-12.93197171,1.995643939,446421117,1.0,1.0450000000000044,0
604,-12.93197171,1.995643939,507740391,0.0,-2.288000000000009,0
605,-12.93197171,1.995643939,642346147,0.0,-1.1170000000000033,0
606,-12.93197171,1.995643939,657894484,1.0,2.2670000000000274,0
607,-12.84863837,2.995643939,245315813,0.0,-3.353000000000012,0
608,-12.79863837,-4.004356061,321769333,1.0,4.907999999999947,0
609,-12.76530504,-1.004356061,2884955,0.0,-3.175999999999987,0
610,-12.59863837,-2.0043560609999997,3964964,1.0,1.0330000000000048,0
611,-12.59863837,-2.0043560609999997,43020357,1.0,1.1689999999999923,0
612,-12.59863837,-2.0043560609999997,408368411,1.0,1.743000000000019,0
613,-12.59863837,-2.0043560609999997,696039965,1.0,5.135999999999976,0
614,-12.59863837,-2.0043560609999997,894143700,1.0,5.2699999999999845,0
615,-12.59863837,-2.0043560609999997,910114803,1.0,1.5080000000000073,0
616,-12.59863837,-1.004356061,224557592,1.0,3.401000000000015,0
617,-12.59863837,-0.004356061,3964964,0.5,0.3605000000000014,0
618,-12.59863837,-0.004356061,103303422,0.0,-1.0,0
619,-12.59863837,-0.004356061,245315813,0.0,-4.416999999999959,0
620,-12.59863837,-0.004356061,252234006,0.0,-1.2359999999999924,0
621,-12.59863837,-0.004356061,294041592,0.0,-7.855000000000016,0
622,-12.59863837,-0.004356061,349171132,1.0,1.7129999999999914,0
623,-12.59863837,-0.004356061,514268702,0.0,-1.8160000000000067,0
624,-12.59863837,-0.004356061,720435955,1.0,2.467000000000008,0
625,-12.59863837,-0.004356061,755075290,1.0,1.2269999999999868,0
626,-12.59863837,-0.004356061,846755060,1.0,5.260999999999976,0
627,-12.59863837,-0.004356061,923162466,0.0,-1.0489999999999913,0
628,-12.59863837,-0.004356061,949879914,1.0,1.1150000000000064,0
629,-12.59863837,-0.004356061,968634301,0.0,-1.6675000000000149,0
630,-12.59863837,1.995643939,355043712,1.0,7.637000000000056,0
631,-12.59863837,1.995643939,630235377,1.0,1.6380000000000066,0
632,-12.59863837,2.995643939,56470734,0.0,-3.7349999999999612,0
633,-12.51530504,0.995643939,48977487,0.0,-5.820000000000034,0
634,-12.43197171,-1.004356061,923162466,0.0,-2.7360000000000197,0
635,-12.39863837,-0.004356061,12919430,1.0,10.872999999999928,0
636,-12.39863837,3.995643939,770588123,0.0,-4.844000000000039,0
637,-12.34863837,-0.004356061,396122776,1.0,8.128000000000064,0
638,-12.34863837,-0.004356061,664438269,0.0,-7.10100000000008,0
639,-12.34863837,2.995643939,652231699,1.0,2.8620000000000143,0
640,-12.34863837,2.995643939,846755060,1.0,3.576000000000018,0
641,-12.29863837,-3.004356061,789515489,1.0,6.824999999999946,0
642,-12.26530504,-2.0043560609999997,351777009,1.0,1.096000000000003,0
643,-12.26530504,-2.0043560609999997,984661157,1.0,1.5339999999999936,0
644,-12.26530504,-1.004356061,433311086,1.0,3.650000000000031,0
645,-12.26530504,1.995643939,911960296,1.0,1.2169999999999936,0
646,-12.26530504,1.995643939,945098209,0.0,-1.453999999999989,0
647,-12.09863837,-2.0043560609999997,355043712,1.0,4.4670000000000485,0
648,-12.09863837,-0.004356061,97123322,1.0,1.0729999999999902,0
649,-12.09863837,-0.004356061,100416772,1.0,7.556000000000034,0
650,-12.09863837,-0.004356061,129490812,1.0,1.8540000000000163,0
651,-12.09863837,-0.004356061,449943813,1.0,2.114000000000012,0
652,-12.09863837,-0.004356061,733093513,1.0,2.054999999999978,0
653,-12.09863837,-0.004356061,779970594,1.0,1.1159999999999952,0
654,-12.09863837,-0.004356061,860810996,1.0,2.0879999999999868,0
655,-12.09863837,-0.004356061,933260573,1.0,1.8229999999999857,0
656,-12.09863837,-0.004356061,949879914,1.0,1.0310000000000046,0
657,-12.09863837,-0.004356061,968634301,0.0,-1.2490000000000125,0
658,-12.09863837,-0.004356061,984661157,1.0,2.03300000000001,0
659,-12.09863837,0.995643939,2884955,0.0,-3.3789999999999707,0
660,-12.09863837,0.995643939,374844073,1.0,3.405999999999966,0
661,-12.09863837,2.995643939,96226407,1.0,9.534999999999933,0
662,-12.09863837,2.995643939,129490812,0.0,-3.160000000000022,0
663,-12.09863837,2.995643939,657894484,0.0,-3.073000000000021,0
664,-11.97959075,3.995643939,507740391,0.0,-10.177999999999953,0
665,-11.93197171,-2.0043560609999997,56470734,1.0,1.5349999999999968,0
666,-11.93197171,-2.0043560609999997,120939072,1.0,1.7720000000000171,0
667,-11.93197171,-2.0043560609999997,312902548,1.0,1.7949999999999855,0
668,-11.93197171,-2.0043560609999997,605713945,1.0,1.1150000000000064,0
669,-11.93197171,-0.004356061,2884955,0.0,-4.5319999999999885,0
670,-11.93197171,-0.004356061,218675715,0.0,-5.011999999999997,0
671,-11.93197171,1.995643939,147547787,0.0,-1.8920000000000226,0
672,-11.93197171,1.995643939,224557592,0.0,-2.3070000000000115,0
673,-11.93197171,1.995643939,514268702,0.0,-1.6599999999999946,0
674,-11.93197171,1.995643939,630235377,0.0,-1.0,0
675,-11.93197171,4.995643939,120939072,0.0,-5.668999999999994,0
676,-11.84863837,-3.004356061,778697233,0.0,-3.318999999999974,0
677,-11.84863837,-0.004356061,815555952,1.0,7.565000000000047,0
678,-11.84863837,5.995643939,148334112,0.0,-10.659999999999926,0
679,-11.76530504,-4.004356061,130941034,1.0,7.71199999999999,0
680,-11.76530504,-1.004356061,218675715,0.0,-3.858999999999972,0
681,-11.76530504,-1.004356061,657894484,0.0,-2.519000000000005,0
682,-11.76530504,0.995643939,134057190,1.0,3.4949999999999575,0
683,-11.69863837,-3.004356061,504663288,0.0,-6.081000000000015,0
684,-11.69863837,0.995643939,720435955,0.0,-9.542999999999981,0
685,-11.66530504,1.995643939,396122776,0.0,-7.911999999999919,0
686,-11.59863837,-3.004356061,626227255,1.0,2.527000000000022,0
687,-11.59863837,-2.0043560609999997,3964964,0.0,-1.0869999999999922,0
688,-11.59863837,-2.0043560609999997,147547787,1.0,1.4969999999999937,0
689,-11.59863837,-2.0043560609999997,148334112,1.0,1.9120000000000115,0
690,-11.59863837,-2.0043560609999997,355043712,1.0,1.1009999999999993,0
691,-11.59863837,-2.0043560609999997,396122776,1.0,5.150000000000048,0
692,-11.59863837,-2.0043560609999997,796639530,1.0,2.2430000000000163,0
693,-11.59863837,-2.0043560609999997,933260573,1.0,1.7569999999999808,0
694,-11.59863837,-1.004356061,561564728,1.0,3.589999999999971,0
695,-11.59863837,-0.004356061,48977487,1.0,1.691000000000005,0
696,-11.59863837,-0.004356061,147547787,0.0,-1.5470000000000161,0
697,-11.59863837,-0.004356061,218675715,0.0,-1.681000000000012,0
698,-11.59863837,-0.004356061,312902548,0.0,-2.1209999999999907,0
699,-11.59863837,-0.004356061,630235377,1.0,1.2359999999999924,0
700,-11.59863837,-0.004356061,720435955,0.0,-4.04299999999995,0
701,-11.59863837,-0.004356061,796639530,1.0,2.1349999999999922,0
702,-11.59863837,-0.004356061,828632181,1.0,1.2830000000000068,0
703,-11.59863837,-0.004356061,931420970,1.0,1.6269999999999867,0
704,-11.59863837,-0.004356061,933260573,1.0,1.5589999999999973,0
705,-11.59863837,-0.004356061,968634301,0.0,-1.8400000000000079,0
706,-11.59863837,-0.004356061,971172922,1.0,1.1410000000000033,0
707,-11.59863837,1.995643939,43020357,0.0,-1.0210000000000043,0
708,-11.59863837,1.995643939,251653297,0.0,-2.1369999999999707,0
709,-11.59863837,1.995643939,733093513,0.0,-1.745000000000004,0
710,-11.59863837,1.995643939,945098209,1.0,1.6150000000000073,0
711,-11.59863837,2.995643939,312902548,0.0,-2.5969999999999844,0
712,-11.59863837,2.995643939,626227255,0.0,-3.307000000000013,0
713,-11.59863837,4.995643939,324908376,0.0,-6.179999999999958,0
714,-11.43197171,-1.004356061,294041592,1.0,5.838000000000041,0
715,-11.43197171,-1.004356061,433311086,1.0,3.1210000000000235,0
716,-11.43197171,-1.004356061,874342939,1.0,6.179000000000052,0
717,-11.43197171,0.995643939,355043712,0.0,-3.384999999999992,0
718,-11.43197171,0.995643939,561564728,1.0,3.435999999999977,0
719,-11.39863837,-4.004356061,331590088,1.0,5.094000000000039,0
720,-11.34863837,-3.004356061,584470675,1.0,3.6040000000000285,0
721,-11.34863837,0.995643939,546064836,0.0,-6.27599999999996,0
722,-11.34863837,0.995643939,733093513,1.0,6.239999999999931,0
723,-11.34863837,1.995643939,48595352,1.0,4.936999999999944,0
724,-11.34863837,1.995643939,350745134,1.0,4.308999999999991,0
725,-11.29863837,-3.004356061,394422911,1.0,5.686999999999939,0
726,-11.26530504,-2.0043560609999997,312902548,1.0,1.3980000000000146,0
727,-11.26530504,-2.0043560609999997,374844073,1.0,2.162000000000014,0
728,-11.26530504,-2.0043560609999997,502901314,1.0,1.023000000000011,0
729,-11.26530504,-2.0043560609999997,630235377,0.0,-1.4389999999999954,0
730,-11.26530504,-2.0043560609999997,718176674,1.0,1.4969999999999937,0
731,-11.26530504,-2.0043560609999997,904039471,1.0,1.2490000000000125,0
732,-11.26530504,-2.0043560609999997,923162466,0.0,-1.216000000000006,0
733,-11.26530504,-2.0043560609999997,956660069,1.0,1.92600000000002,0
734,-11.26530504,-0.004356061,355043712,1.0,4.585000000000026,0
735,-11.26530504,-0.004356061,657894484,0.0,-4.0830000000000375,0
736,-11.26530504,1.995643939,41833230,0.0,-1.7329999999999806,0
737,-11.26530504,1.995643939,97123322,0.0,-1.0640000000000063,0
738,-11.26530504,1.995643939,102783161,0.0,-1.5240000000000007,0
739,-11.26530504,1.995643939,252234006,1.0,1.2069999999999945,0
740,-11.26530504,1.995643939,779970594,1.0,1.0830000000000102,0
741,-11.09863837,-3.004356061,449943813,1.0,8.916000000000082,0
742,-11.09863837,-2.0043560609999997,74263281,1.0,4.325000000000021,0
743,-11.09863837,-2.0043560609999997,278773301,1.0,5.304999999999979,0
744,-11.09863837,-2.0043560609999997,652231699,1.0,4.897999999999993,0
745,-11.09863837,-2.0043560609999997,664438269,1.0,5.304999999999979,0
746,-11.09863837,-1.004356061,716236442,1.0,3.4829999999999637,0
747,-11.09863837,-0.004356061,103303422,0.0,-1.5280000000000122,0
748,-11.09863837,-0.004356061,176326342,0.0,-1.5520000000000131,0
749,-11.09863837,-0.004356061,349171132,1.0,2.2010000000000156,0
750,-11.09863837,-0.004356061,432332461,0.0,-1.8300000000000152,0
751,-11.09863837,-0.004356061,578711405,1.0,1.566000000000003,0
752,-11.09863837,-0.004356061,589703985,0.0,-1.7329999999999806,0
753,-11.09863837,-0.004356061,642346147,0.0,-1.067999999999994,0
754,-11.09863837,-0.004356061,683861923,1.0,1.8020000000000143,0
755,-11.09863837,-0.004356061,749079099,1.0,1.894000000000005,0
756,-11.09863837,-0.004356061,778697233,1.0,1.623000000000013,0
757,-11.09863837,-0.004356061,828632181,1.0,1.1999999999999997,0
758,-11.09863837,-0.004356061,968634301,1.0,1.9239999999999855,0
759,-11.09863837,0.995643939,507740391,1.0,3.6210000000000337,0
760,-11.09863837,0.995643939,961875421,1.0,2.710000000000019,0
761,-11.09863837,1.995643939,504663288,1.0,5.26399999999999,0
762,-11.09863837,2.995643939,507740391,0.0,-2.7409999999999894,0
763,-11.06530504,-2.0043560609999997,394422911,1.0,8.094999999999912,0
764,-11.04863837,0.995643939,522579064,1.0,8.626000000000097,0
765,-10.93197171,-2.0043560609999997,120939072,1.0,1.3949999999999902,0
766,-10.93197171,-2.0043560609999997,294041592,0.0,-1.629999999999996,0
767,-10.93197171,-2.0043560609999997,432332461,0.0,-1.6280000000000092,0
768,-10.93197171,-2.0043560609999997,755075290,0.0,-1.0640000000000063,0
769,-10.93197171,-2.0043560609999997,968634301,1.0,2.0700000000000207,0
770,-10.93197171,-1.004356061,218675715,0.0,-3.3610000000000353,0
771,-10.93197171,-1.004356061,931420970,1.0,2.6449999999999863,0
772,-10.93197171,-1.004356061,979660929,1.0,3.220000000000023,0
773,-10.93197171,-0.004356061,2884955,0.0,-4.710999999999982,0
774,-10.93197171,-0.004356061,12919430,1.0,4.934999999999957,0
775,-10.93197171,0.995643939,148334112,0.0,-3.356999999999984,0
776,-10.93197171,1.995643939,48595352,1.0,1.8609999999999915,0
777,-10.93197171,1.995643939,102783161,1.0,1.197999999999989,0
778,-10.93197171,1.995643939,245315813,0.0,-1.4109999999999856,0
779,-10.93197171,1.995643939,251653297,0.0,-1.504999999999996,0
780,-10.93197171,1.995643939,815555952,0.0,-7.179000000000056,0
781,-10.93197171,1.995643939,956660069,0.0,-1.5819999999999943,0
782,-10.84863837,-2.0043560609999997,148334112,1.0,4.8900000000000166,0
783,-10.79863837,-2.0043560609999997,394422911,0.0,-7.681000000000034,0
784,-10.76530504,-1.004356061,546064836,1.0,3.366999999999976,0
785,-10.76530504,-1.004356061,720435955,1.0,3.2570000000000077,0
786,-10.76530504,-0.004356061,278773301,1.0,13.609999999999895,0
787,-10.76530504,0.995643939,628308431,0.0,-3.1020000000000185,0
788,-10.74149551,-0.004356061,294041592,1.0,16.354000000000095,0
789,-10.67006694,-5.004356061,789515489,1.0,9.286000000000039,0
790,-10.59863837,-3.004356061,96226407,1.0,5.648000000000012,0
791,-10.59863837,-3.004356061,492518259,1.0,3.1559999999999673,0
792,-10.59863837,-2.0043560609999997,102783161,1.0,1.1799999999999984,0
793,-10.59863837,-2.0043560609999997,312902548,1.0,2.2770000000000197,0
794,-10.59863837,-2.0043560609999997,336172395,1.0,1.0310000000000046,0
795,-10.59863837,-2.0043560609999997,504663288,1.0,5.260999999999976,0
796,-10.59863837,-0.004356061,75969320,1.0,1.0,0
797,-10.59863837,-0.004356061,103303422,1.0,1.0,0
798,-10.59863837,-0.004356061,147547787,0.0,-1.6140000000000052,0
799,-10.59863837,-0.004356061,192065971,1.0,10.731999999999976,0
800,-10.59863837,-0.004356061,251653297,1.0,1.7100000000000093,0
801,-10.59863837,-0.004356061,331590088,1.0,1.9710000000000032,0
802,-10.59863837,-0.004356061,432332461,1.0,1.8010000000000141,0
803,-10.59863837,-0.004356061,455194813,0.0,-2.3099999999999703,0
804,-10.59863837,-0.004356061,502901314,1.0,1.696000000000018,0
805,-10.59863837,-0.004356061,514268702,0.0,-1.8840000000000086,0
806,-10.59863837,-0.004356061,605713945,0.0,-1.1559999999999986,0
807,-10.59863837,-0.004356061,749079099,0.0,-2.1409999999999894,0
808,-10.59863837,-0.004356061,755075290,1.0,1.1290000000000087,0
809,-10.59863837,-0.004356061,828632181,1.0,1.064000000000008,0
810,-10.59863837,-0.004356061,923162466,1.0,1.25,0
811,-10.59863837,-0.004356061,945098209,1.0,1.875999999999984,0
812,-10.59863837,-0.004356061,949645864,1.0,1.5420000000000016,0
813,-10.59863837,-0.004356061,956660069,1.0,1.4560000000000095,0
814,-10.59863837,-0.004356061,961875421,0.0,-1.8260000000000143,0
815,-10.59863837,0.995643939,504663288,1.0,2.8070000000000124,0
816,-10.59863837,0.995643939,522579064,1.0,6.585999999999926,0
817,-10.59863837,1.995643939,251653297,1.0,1.7359999999999918,0
818,-10.59863837,1.995643939,408368411,0.0,-2.311999999999997,0
819,-10.59863837,1.995643939,514268702,0.0,-1.4700000000000173,0
820,-10.59863837,1.995643939,546064836,1.0,1.8859999999999908,0
821,-10.59863837,1.995643939,683861923,0.0,-1.914999999999988,0
822,-10.59863837,1.995643939,885985637,0.0,-1.144999999999992,0
823,-10.59863837,1.995643939,931420970,0.0,-1.1170000000000033,0
824,-10.59863837,3.995643939,733093513,0.0,-4.7809999999999615,0
825,-10.43197171,0.995643939,278773301,1.0,5.696999999999994,0
826,-10.43197171,2.995643939,522579064,0.0,-9.094999999999946,0
827,-10.39863837,-4.004356061,673728725,1.0,4.797000000000022,0
828,-10.39863837,-3.004356061,394422911,1.0,5.50700000000003,0
829,-10.34863837,-3.004356061,34984274,0.0,-3.428000000000043,0
830,-10.34863837,-2.0043560609999997,716236442,1.0,4.73299999999999,0
831,-10.34863837,1.995643939,321769333,1.0,4.318999999999971,0
832,-10.26530504,-2.0043560609999997,56470734,1.0,1.0670000000000046,0
833,-10.26530504,-2.0043560609999997,312902548,1.0,1.9239999999999855,0
834,-10.26530504,-2.0043560609999997,563121476,1.0,1.0910000000000055,0
835,-10.26530504,-1.004356061,148334112,1.0,3.8189999999999724,0
836,-10.26530504,-1.004356061,561564728,1.0,3.550999999999981,0
837,-10.26530504,0.995643939,2884955,1.0,3.2889999999999886,0
838,-10.26530504,0.995643939,294041592,1.0,3.6310000000000255,0
839,-10.26530504,0.995643939,657894484,0.0,-2.9179999999999717,0
840,-10.26530504,1.995643939,514268702,0.0,-1.4389999999999954,0
841,-10.26530504,1.995643939,630235377,0.0,-1.4379999999999906,0
842,-10.26530504,1.995643939,664438269,0.0,-1.5460000000000131,0
843,-10.26530504,1.995643939,770588123,1.0,1.1159999999999952,0
844,-10.26530504,1.995643939,968634301,0.0,-1.8450000000000193,0
845,-10.13197171,-2.0043560609999997,504663288,0.0,-7.056999999999919,0
846,-10.09863837,-1.004356061,2884955,0.0,-3.2629999999999777,0
847,-10.09863837,-1.004356061,449943813,0.0,-3.6510000000000185,0
848,-10.09863837,-0.004356061,130941034,0.0,-1.7329999999999806,0
849,-10.09863837,-0.004356061,278773301,1.0,2.0589999999999904,0
850,-10.09863837,-0.004356061,331590088,0.0,-1.6789999999999823,0
851,-10.09863837,-0.004356061,367119634,1.0,1.5299999999999823,0
852,-10.09863837,-0.004356061,534449063,1.0,1.0389999999999908,0
853,-10.09863837,-0.004356061,546064836,0.0,-1.7759999999999847,0
854,-10.09863837,-0.004356061,891299842,1.0,2.0090000000000092,0
855,-10.09863837,-0.004356061,923162466,0.5,-0.023999999999999726,0
856,-10.09863837,-0.004356061,956660069,1.0,1.9320000000000106,0
857,-10.04308282,-5.004356061,134057190,1.0,14.710000000000033,0
858,-9.998638372,-4.004356061,48977487,1.0,4.607999999999985,0
859,-9.998638372,-3.004356061,455717130,1.0,6.335999999999932,0
860,-9.998638372,-0.004356061,910114803,1.0,10.135000000000126,0
861,-9.931971705,-2.0043560609999997,673728725,1.0,1.8990000000000007,0
862,-9.931971705,-2.0043560609999997,718176674,1.0,1.4829999999999859,0
863,-9.931971705,-2.0043560609999997,749079099,1.0,1.6970000000000025,0
864,-9.931971705,-2.0043560609999997,889540573,0.5,0.00550000000000002,0
865,-9.931971705,-2.0043560609999997,949645864,1.0,1.3319999999999943,0
866,-9.931971705,-1.004356061,628308431,1.0,3.4500000000000295,0
867,-9.931971705,0.995643939,657894484,0.0,-2.519000000000005,0
868,-9.931971705,1.995643939,103303422,0.0,-1.0,0
869,-9.931971705,1.995643939,147547787,1.0,1.6034999999999766,0
870,-9.931971705,1.995643939,446421117,0.0,-1.4220000000000153,0
871,-9.931971705,1.995643939,628308431,0.0,-2.4800000000000133,0
872,-9.931971705,1.995643939,984661157,0.0,-1.9660000000000066,0
873,-9.931971705,2.995643939,321769333,1.0,8.62100000000007,0
874,-9.848638372,-3.004356061,218675715,0.0,-3.948000000000037,0
875,-9.848638372,2.995643939,931420970,0.0,-3.8989999999999467,0
876,-9.798638372000001,-4.004356061,294041592,0.0,-5.28099999999996,0
877,-9.765305039,-1.004356061,34984274,0.0,-3.323000000000026,0
878,-9.765305039,-1.004356061,396122776,1.0,6.23700000000005,0
879,-9.765305039,-1.004356061,733093513,0.0,-3.0489999999999826,0
880,-9.765305039,0.995643939,979660929,0.0,-5.898999999999926,0
881,-9.598638372,-3.004356061,100416772,1.0,3.18699999999997,0
882,-9.598638372,-3.004356061,333010087,1.0,9.887000000000006,0
883,-9.598638372,-3.004356061,433311086,1.0,9.66600000000009,0
884,-9.598638372,-2.0043560609999997,120939072,1.0,1.2089999999999943,0
885,-9.598638372,-2.0043560609999997,433311086,1.0,5.137999999999957,0
886,-9.598638372,-2.0043560609999997,455194813,1.0,1.663000000000009,0
887,-9.598638372,-2.0043560609999997,718176674,1.0,2.321000000000007,0
888,-9.598638372,-2.0043560609999997,846755060,0.0,-2.464999999999995,0
889,-9.598638372,-2.0043560609999997,923162466,0.0,-1.0910000000000055,0
890,-9.598638372,-1.004356061,92774005,1.0,2.982999999999967,0
891,-9.598638372,-0.004356061,34984274,1.0,1.5159999999999934,0
892,-9.598638372,-0.004356061,56470734,0.0,-2.0399999999999863,0
893,-9.598638372,-0.004356061,102783161,1.0,1.0,0
894,-9.598638372,-0.004356061,367119634,1.0,1.6369999999999791,0
895,-9.598638372,-0.004356061,394422911,1.0,7.16300000000001,0
896,-9.598638372,-0.004356061,433311086,1.0,4.359999999999967,0
897,-9.598638372,-0.004356061,563121476,1.0,1.1084999999999978,0
898,-9.598638372,-0.004356061,578711405,1.0,1.4629999999999959,0
899,-9.598638372,-0.004356061,642346147,1.0,1.0350000000000104,0
900,-9.598638372,-0.004356061,657894484,1.0,5.1489999999999325,0
901,-9.598638372,-0.004356061,770588123,1.0,1.9560000000000115,0
902,-9.598638372,-0.004356061,828632181,0.0,-1.069000000000004,0
903,-9.598638372,-0.004356061,885985637,0.0,-1.1820000000000068,0
904,-9.598638372,-0.004356061,911960296,1.0,1.280999999999994,0
905,-9.598638372,-0.004356061,933260573,0.0,-2.2000000000000206,0
906,-9.598638372,-0.004356061,971172922,0.0,-1.1180000000000005,0
907,-9.598638372,0.995643939,331590088,0.0,-3.66300000000001,0
908,-9.598638372,1.995643939,75969320,1.0,2.3350000000000164,0
909,-9.598638372,1.995643939,321769333,0.0,-1.4589999999999859,0
910,-9.598638372,1.995643939,446421117,0.0,-1.1639999999999904,0
911,-9.598638372,1.995643939,507157861,0.0,-1.2549999999999961,0
912,-9.598638372,1.995643939,534449063,0.0,-2.269000000000005,0
913,-9.598638372,1.995643939,584470675,1.0,8.465000000000058,0
914,-9.598638372,1.995643939,664438269,0.0,-4.7089999999999925,0
915,-9.598638372,1.995643939,720435955,0.0,-1.6470000000000145,0
916,-9.598638372,1.995643939,828632181,1.0,1.1519999999999964,0
917,-9.598638372,1.995643939,885985637,0.0,-1.0240000000000007,0
918,-9.598638372,1.995643939,904039471,0.5,0.016000000000000014,0
919,-9.431971705,0.995643939,396122776,0.0,-3.973999999999977,0
920,-9.431971705,0.995643939,507740391,1.0,3.921000000000035,0
921,-9.398638372,-0.004356061,92774005,1.0,10.6750000000001,0
922,-9.348638372,-3.004356061,367119634,1.0,3.3030000000000403,0
923,-9.348638372,-3.004356061,657894484,0.0,-2.983999999999986,0
924,-9.348638372,0.995643939,561564728,0.0,-6.438000000000066,0
925,-9.348638372,1.995643939,396122776,0.0,-5.338000000000028,0
926,-9.348638372,1.995643939,891299842,0.0,-4.384000000000012,0
927,-9.348638372,2.995643939,984661157,1.0,3.733999999999974,0
928,-9.265305039,-2.0043560609999997,312902548,1.0,1.4489999999999932,0
929,-9.265305039,-2.0043560609999997,749079099,1.0,1.6839999999999953,0
930,-9.265305039,-2.0043560609999997,956660069,0.0,-1.1279999999999943,0
931,-9.265305039,-1.004356061,134057190,1.0,3.4210000000000327,0
932,-9.265305039,-1.004356061,455717130,0.0,-6.181000000000032,0
933,-9.265305039,-0.004356061,218675715,0.0,-5.048999999999981,0
934,-9.265305039,-0.004356061,321769333,0.0,-4.646999999999973,0
935,-9.265305039,-0.004356061,891299842,1.0,4.871000000000049,0
936,-9.265305039,1.995643939,34984274,1.0,2.0910000000000046,0
937,-9.265305039,1.995643939,294041592,0.0,-1.1220000000000059,0
938,-9.265305039,1.995643939,889540573,0.0,-1.093000000000004,0
939,-9.198638372000001,3.995643939,48595352,1.0,4.641000000000036,0
940,-9.198638372000001,3.995643939,74263281,0.0,-4.381000000000021,0
941,-9.181971705,-1.004356061,561564728,1.0,5.682999999999994,0
942,-9.098638372,-4.004356061,504663288,0.0,-8.085000000000031,0
943,-9.098638372,-2.0043560609999997,148334112,0.0,-10.268000000000024,0
944,-9.098638372,-2.0043560609999997,931420970,1.0,5.266999999999991,0
945,-9.098638372,-1.004356061,74263281,1.0,2.5480000000000014,0
946,-9.098638372,-0.004356061,3964964,1.0,1.1669999999999925,0
947,-9.098638372,-0.004356061,56470734,1.0,1.1209999999999913,0
948,-9.098638372,-0.004356061,189660560,1.0,13.70300000000016,0
949,-9.098638372,-0.004356061,251653297,1.0,2.192000000000006,0
950,-9.098638372,-0.004356061,252234006,1.0,1.4169999999999991,0
951,-9.098638372,-0.004356061,254632445,1.0,1.0120000000000002,0
952,-9.098638372,-0.004356061,374999420,1.0,1.3319999999999943,0
953,-9.098638372,-0.004356061,534449063,1.0,1.0769999999999984,0
954,-9.098638372,-0.004356061,546064836,1.0,1.9600000000000128,0
955,-9.098638372,-0.004356061,650974545,0.0,-1.2859999999999898,0
956,-9.098638372,-0.004356061,749079099,1.0,1.5449999999999895,0
957,-9.098638372,-0.004356061,755075290,1.0,1.0249999999999906,0
958,-9.098638372,-0.004356061,911960296,0.0,-1.1329999999999971,0
959,-9.098638372,-0.004356061,931420970,0.0,-7.192000000000006,0
960,-9.098638372,0.995643939,696039965,0.0,-2.75,0
961,-9.065305039,-2.0043560609999997,324908376,1.0,8.152000000000037,0
962,-9.065305039,1.995643939,321769333,0.0,-7.400000000000061,0
963,-9.048638372000001,-1.004356061,433311086,1.0,9.23300000000008,0
964,-8.998638372,-4.004356061,894143700,1.0,4.58699999999999,0
965,-8.948638372000001,-1.004356061,433311086,1.0,9.436999999999923,0
966,-8.931971705,-4.004356061,355043712,1.0,10.93699999999992,0
967,-8.931971705,-2.0043560609999997,254632445,1.0,1.9679999999999849,0
968,-8.931971705,-2.0043560609999997,455717130,1.0,1.1319999999999988,0
969,-8.931971705,-2.0043560609999997,589703985,1.0,1.0,0
970,-8.931971705,-2.0043560609999997,889540573,0.0,-1.4479999999999873,0
971,-8.931971705,-1.004356061,626227255,1.0,3.0139999999999723,0
972,-8.931971705,-1.004356061,716236442,1.0,3.348999999999986,0
973,-8.931971705,-0.004356061,12919430,0.0,-5.356000000000048,0
974,-8.931971705,-0.004356061,626227255,0.0,-5.1709999999999905,0
975,-8.931971705,-0.004356061,720435955,0.0,-4.7570000000000245,0
976,-8.931971705,0.995643939,891299842,0.0,-3.2960000000000322,0
977,-8.931971705,1.995643939,130271607,0.0,-1.0389999999999908,0
978,-8.931971705,1.995643939,251653297,0.0,-2.162000000000014,0
979,-8.931971705,1.995643939,374844073,0.0,-2.000999999999983,0
980,-8.931971705,1.995643939,455194813,0.0,-1.0249999999999906,0
981,-8.931971705,1.995643939,885985637,1.0,1.0,0
982,-8.931971705,1.995643939,891299842,0.0,-10.143000000000024,0
983,-8.931971705,1.995643939,923162466,1.0,1.317999999999992,0
984,-8.865305038999999,1.995643939,910114803,0.0,-8.27399999999992,0
985,-8.848638372,-3.004356061,449943813,1.0,3.240000000000008,0
986,-8.848638372,-2.0043560609999997,860810996,1.0,4.78800000000001,0
987,-8.848638372,-1.004356061,2884955,0.0,-6.396000000000047,0
988,-8.848638372,0.995643939,664438269,0.0,-5.99499999999993,0
989,-8.848638372,1.995643939,278773301,0.0,-4.929000000000043,0
990,-8.848638372,2.995643939,218675715,1.0,3.4570000000000403,0
991,-8.798638372000001,3.995643939,176326342,0.0,-4.699000000000031,0
992,-8.765305039,-5.004356061,321769333,1.0,6.009000000000013,0
993,-8.765305039,2.995643939,716236442,0.0,-8.969000000000044,0
994,-8.741495515,5.995643939,586071473,0.0,-7.833000000000059,0
995,-8.712924086000001,1.995643939,100416772,1.0,13.837999999999944,0
996,-8.698638372000001,-3.004356061,779970594,1.0,5.527999999999959,0
997,-8.681971705,-1.004356061,100416772,1.0,6.494999999999926,0
998,-8.634352658,2.995643939,12919430,1.0,12.609000000000098,0
999,-8.598638372,-6.004356061,910114803,0.0,-13.969000000000046,0
1000,-8.598638372,-2.0043560609999997,312902548,1.0,1.3980000000000146,0
1001,-8.598638372,-2.0043560609999997,446421117,1.0,1.0059999999999862,0
1002,-8.598638372,-2.0043560609999997,492518259,1.0,1.6915000000000113,0
1003,-8.598638372,-2.0043560609999997,650974545,1.0,1.1720000000000133,0
1004,-8.598638372,-2.0043560609999997,885985637,1.0,1.1009999999999993,0
1005,-8.598638372,-2.0043560609999997,945098209,1.0,1.9030000000000138,0
1006,-8.598638372,-2.0043560609999997,956660069,0.0,-1.400999999999993,0
1007,-8.598638372,-1.004356061,251264572,1.0,3.550999999999981,0
1008,-8.598638372,-1.004356061,449943813,1.0,2.690000000000033,0
1009,-8.598638372,-0.004356061,41833230,1.0,4.108999999999969,0
1010,-8.598638372,-0.004356061,56470734,1.0,4.4690000000000385,0
1011,-8.598638372,-0.004356061,75969320,1.0,1.0,0
1012,-8.598638372,-0.004356061,97123322,0.5,-0.035500000000000184,0
1013,-8.598638372,-0.004356061,130271607,0.0,-1.2830000000000068,0
1014,-8.598638372,-0.004356061,130941034,0.0,-1.7970000000000175,0
1015,-8.598638372,-0.004356061,251264572,0.0,-2.2540000000000036,0
1016,-8.598638372,-0.004356061,252234006,0.0,-1.6009999999999993,0
1017,-8.598638372,-0.004356061,432332461,1.0,2.1710000000000242,0
1018,-8.598638372,-0.004356061,446421117,0.0,-1.2419999999999993,0
1019,-8.598638372,-0.004356061,534449063,0.0,-1.8460000000000034,0
1020,-8.598638372,-0.004356061,561564728,1.0,1.2019999999999984,0
1021,-8.598638372,-0.004356061,755075290,1.0,1.0,0
1022,-8.598638372,-0.004356061,923162466,1.0,1.5399999999999938,0
1023,-8.598638372,-0.004356061,949879914,1.0,1.644999999999989,0
1024,-8.598638372,1.995643939,97123322,0.0,-1.0430000000000055,0
1025,-8.598638372,1.995643939,367119634,0.0,-1.7050000000000132,0
1026,-8.598638372,1.995643939,433311086,0.0,-2.138000000000008,0
1027,-8.598638372,1.995643939,945098209,0.0,-1.6059999999999952,0
1028,-8.515305039,-2.0043560609999997,324908376,1.0,10.682999999999995,0
1029,-8.498638372,2.995643939,961875421,1.0,6.125,0
1030,-8.465305039,0.995643939,224557592,0.0,-11.648000000000076,0
1031,-8.431971705,0.995643939,683861923,1.0,3.3510000000000435,0
1032,-8.398638372,-0.004356061,134057190,1.0,10.493000000000055,0
1033,-8.348638372,-3.004356061,218675715,0.0,-2.7859999999999956,0
1034,-8.348638372,-2.0043560609999997,189660560,1.0,10.887999999999938,0
1035,-8.348638372,-2.0043560609999997,507740391,1.0,4.833499999999935,0
1036,-8.348638372,-0.004356061,815555952,0.0,-8.23500000000004,0
1037,-8.298638372000001,-3.004356061,909861321,1.0,5.994000000000023,0
1038,-8.298638372000001,0.995643939,394422911,1.0,9.813000000000079,0
1039,-8.265305039,-2.0043560609999997,48977487,1.0,1.7459999999999878,0
1040,-8.265305039,-2.0043560609999997,351777009,1.0,1.1000000000000103,0
1041,-8.265305039,-1.004356061,74263281,1.0,5.637999999999954,0
1042,-8.265305039,-1.004356061,367119634,1.0,2.669000000000014,0
1043,-8.265305039,-0.004356061,148334112,0.0,-4.835999999999977,0
1044,-8.265305039,-0.004356061,720435955,1.0,4.160000000000033,0
1045,-8.265305039,-0.004356061,891299842,0.0,-4.907000000000001,0
1046,-8.265305039,0.995643939,254632445,0.0,-3.9700000000000237,0
1047,-8.265305039,0.995643939,331590088,0.0,-3.0319999999999867,0
1048,-8.265305039,1.995643939,97123322,0.0,-1.1710000000000018,0
1049,-8.265305039,1.995643939,718176674,0.0,-1.5979999999999905,0
1050,-8.265305039,1.995643939,778697233,0.0,-1.8650000000000075,0
1051,-8.265305039,1.995643939,796639530,1.0,1.7079999999999957,0
1052,-8.265305039,1.995643939,945098209,0.0,-2.0259999999999807,0
1053,-8.265305039,3.995643939,910114803,1.0,8.389999999999967,0
1054,-8.181971705,1.995643939,504663288,1.0,11.349000000000093,0
1055,-8.131971705,-2.0043560609999997,894143700,1.0,7.820000000000067,0
1056,-8.098638372,-4.004356061,449943813,1.0,7.628000000000057,0
1057,-8.098638372,-4.004356061,696039965,0.0,-7.04100000000006,0
1058,-8.098638372,-1.004356061,664438269,1.0,3.4960000000000315,0
1059,-8.098638372,-0.004356061,48595352,1.0,1.6369999999999791,0
1060,-8.098638372,-0.004356061,514268702,1.0,1.9740000000000184,0
1061,-8.098638372,-0.004356061,630235377,1.0,1.2709999999999952,0
1062,-8.098638372,-0.004356061,770588123,0.0,-1.793999999999989,0
1063,-8.098638372,-0.004356061,779970594,0.0,-1.1799999999999984,0
1064,-8.098638372,1.995643939,134057190,0.0,-11.03,0
1065,-8.098638372,1.995643939,840480197,0.0,-4.637999999999961,0
1066,-8.098638372,2.995643939,103303422,0.0,-2.984999999999977,0
1067,-8.098638372,3.995643939,374999420,0.0,-8.177999999999969,0
1068,-8.015305039,0.995643939,48595352,1.0,6.327999999999977,0
1069,-7.931971705,-2.0043560609999997,367119634,1.0,1.2780000000000107,0
1070,-7.931971705,-2.0043560609999997,452249694,1.0,7.036999999999933,0
1071,-7.931971705,-2.0043560609999997,628308431,1.0,2.4169999999999945,0
1072,-7.931971705,-2.0043560609999997,889540573,0.0,-1.2169999999999936,0
1073,-7.931971705,-2.0043560609999997,910114803,0.0,-7.146000000000062,0
1074,-7.931971705,-0.004356061,74263281,1.0,4.118999999999968,0
1075,-7.931971705,-0.004356061,910114803,1.0,4.987000000000042,0
1076,-7.931971705,0.995643939,657894484,0.0,-3.3019999999999743,0
1077,-7.931971705,1.995643939,43020357,0.0,-1.6929999999999903,0
1078,-7.931971705,1.995643939,48595352,1.0,1.8039999999999816,0
1079,-7.931971705,1.995643939,102783161,1.0,1.283999999999994,0
1080,-7.931971705,1.995643939,176326342,1.0,1.6470000000000145,0
1081,-7.931971705,1.995643939,254632445,0.0,-1.6169999999999907,0
1082,-7.931971705,1.995643939,312902548,0.0,-2.0199999999999876,0
1083,-7.931971705,1.995643939,949645864,0.0,-1.3540000000000068,0
1084,-7.931971705,1.995643939,971172922,0.0,-1.1229999999999982,0
1085,-7.848638372000001,-3.004356061,245315813,1.0,3.0660000000000163,0
1086,-7.848638372000001,-3.004356061,504663288,0.0,-3.608999999999975,0
1087,-7.848638372000001,-2.0043560609999997,652231699,1.0,4.923999999999981,0
1088,-7.848638372000001,-0.004356061,433311086,1.0,7.382000000000038,0
1089,-7.848638372000001,1.995643939,504663288,0.0,-11.141999999999904,0
1090,-7.848638372000001,1.995643939,546064836,1.0,4.786999999999992,0
1091,-7.848638372000001,2.995643939,224557592,0.0,-2.631000000000003,0
1092,-7.83673361,-4.004356061,717256200,1.0,11.027999999999993,0
1093,-7.798638372,-3.004356061,696039965,1.0,5.771000000000033,0
1094,-7.765305038999999,-1.004356061,224557592,1.0,3.2680000000000153,0
1095,-7.765305038999999,0.995643939,455717130,0.0,-3.3640000000000194,0
1096,-7.748638372,-3.004356061,789515489,1.0,15.587000000000206,0
1097,-7.598638372000001,-4.004356061,717256200,1.0,7.965999999999924,0
1098,-7.598638372000001,-3.004356061,148334112,0.0,-8.744999999999918,0
1099,-7.598638372000001,-3.004356061,657894484,0.0,-3.404999999999977,0
1100,-7.598638372000001,-2.0043560609999997,92774005,1.0,1.7110000000000105,0
1101,-7.598638372000001,-2.0043560609999997,102783161,1.0,1.028999999999997,0
1102,-7.598638372000001,-2.0043560609999997,251653297,1.0,1.3039999999999847,0
1103,-7.598638372000001,-2.0043560609999997,312902548,1.0,1.4519999999999984,0
1104,-7.598638372000001,-2.0043560609999997,433311086,1.0,5.26399999999999,0
1105,-7.598638372000001,-2.0043560609999997,514268702,1.0,1.8039999999999816,0
1106,-7.598638372000001,-2.0043560609999997,911960296,0.0,-1.224000000000001,0
1107,-7.598638372000001,-1.004356061,367119634,0.0,-3.180000000000008,0
1108,-7.598638372000001,-1.004356061,733093513,0.0,-2.9290000000000127,0
1109,-7.598638372000001,-0.004356061,245315813,0.0,-1.2419999999999993,0
1110,-7.598638372000001,-0.004356061,321769333,1.0,4.722000000000013,0
1111,-7.598638372000001,-0.004356061,336172395,0.0,-1.211999999999992,0
1112,-7.598638372000001,-0.004356061,408368411,1.0,2.398999999999984,0
1113,-7.598638372000001,-0.004356061,507157861,0.0,-1.3250000000000042,0
1114,-7.598638372000001,-0.004356061,589703985,1.0,1.0,0
1115,-7.598638372000001,-0.004356061,605713945,0.0,-1.103000000000002,0
1116,-7.598638372000001,-0.004356061,642346147,1.0,1.1669999999999925,0
1117,-7.598638372000001,-0.004356061,650974545,0.0,-1.7100000000000093,0
1118,-7.598638372000001,-0.004356061,789515489,0.0,-1.6699999999999873,0
1119,-7.598638372000001,-0.004356061,889540573,0.0,-1.2659999999999993,0
1120,-7.598638372000001,-0.004356061,949645864,1.0,1.3819999999999897,0
1121,-7.598638372000001,-0.004356061,979660929,0.0,-2.375999999999982,0
1122,-7.598638372000001,0.995643939,628308431,0.0,-2.9529999999999794,0
1123,-7.598638372000001,0.995643939,840480197,0.0,-12.487000000000064,0
1124,-7.598638372000001,0.995643939,933260573,1.0,2.768000000000013,0
1125,-7.598638372000001,1.995643939,840480197,0.0,-10.795000000000055,0
1126,-7.598638372000001,1.995643939,949645864,0.0,-1.256999999999994,0
1127,-7.598638372000001,1.995643939,984661157,0.0,-1.7659999999999891,0
1128,-7.598638372000001,2.995643939,92774005,0.0,-3.207000000000035,0
1129,-7.598638372000001,2.995643939,224184422,0.0,-3.922000000000022,0
1130,-7.598638372000001,3.995643939,522579064,1.0,10.505000000000088,0
1131,-7.498638372,-3.004356061,433311086,1.0,6.659000000000071,0
1132,-7.431971705,0.995643939,103303422,0.0,-3.7980000000000014,0
1133,-7.431971705,0.995643939,546064836,0.0,-3.263999999999967,0
1134,-7.431971705,3.995643939,452249694,0.0,-7.4430000000000875,0
1135,-7.348638372000001,-2.0043560609999997,502901314,1.0,10.99899999999988,0
1136,-7.348638372000001,-2.0043560609999997,652231699,1.0,4.6050000000000155,0
1137,-7.348638372000001,-1.004356061,333010087,1.0,6.101000000000075,0
1138,-7.348638372000001,-0.004356061,586071473,1.0,7.516999999999942,0
1139,-7.348638372000001,-0.004356061,846755060,0.0,-8.197999999999952,0
1140,-7.348638372000001,0.995643939,100416772,0.0,-6.088000000000047,0
1141,-7.265305038999999,-2.0043560609999997,251264572,1.0,2.0750000000000193,0
1142,-7.265305038999999,-2.0043560609999997,630235377,1.0,1.0,0
1143,-7.265305038999999,-2.0043560609999997,718176674,1.0,2.3279999999999808,0
1144,-7.265305038999999,-2.0043560609999997,755075290,1.0,1.0559999999999954,0
1145,-7.265305038999999,-2.0043560609999997,789515489,1.0,1.2169999999999936,0
1146,-7.265305038999999,-2.0043560609999997,889540573,1.0,1.1669999999999925,0
1147,-7.265305038999999,-2.0043560609999997,923162466,0.0,-1.1970000000000023,0
1148,-7.265305038999999,-1.004356061,224557592,0.0,-6.949999999999944,0
1149,-7.265305038999999,-1.004356061,333010087,1.0,12.954999999999941,0
1150,-7.265305038999999,-1.004356061,628308431,1.0,3.7799999999999767,0
1151,-7.265305038999999,-0.004356061,673728725,0.0,-4.865999999999988,0
1152,-7.265305038999999,1.995643939,3964964,1.0,1.1459999999999992,0
1153,-7.265305038999999,1.995643939,129490812,0.0,-1.5040000000000113,0
1154,-7.265305038999999,1.995643939,176326342,0.0,-1.6169999999999907,0
1155,-7.265305038999999,1.995643939,432332461,1.0,2.067000000000006,0
1156,-7.265305038999999,1.995643939,605713945,1.0,1.067999999999994,0
1157,-7.265305038999999,1.995643939,911960296,0.0,-1.4589999999999859,0
1158,-7.265305038999999,3.995643939,504663288,1.0,7.115999999999987,0
1159,-7.098638372000001,-4.004356061,504663288,0.0,-8.264999999999961,0
1160,-7.098638372000001,-2.0043560609999997,449943813,1.0,5.494000000000012,0
1161,-7.098638372000001,-1.004356061,75969320,0.0,-2.51700000000003,0
1162,-7.098638372000001,-1.004356061,720435955,1.0,6.507999999999947,0
1163,-7.098638372000001,-0.004356061,97123322,1.0,1.0,0
1164,-7.098638372000001,-0.004356061,130941034,1.0,2.1190000000000175,0
1165,-7.098638372000001,-0.004356061,148334112,0.0,-1.9489999999999834,0
1166,-7.098638372000001,-0.004356061,251653297,1.0,1.905999999999979,0
1167,-7.098638372000001,-0.004356061,336172395,1.0,1.0509999999999926,0
1168,-7.098638372000001,-0.004356061,349171132,0.0,-2.2849999999999993,0
1169,-7.098638372000001,-0.004356061,586071473,1.0,1.866999999999987,0
1170,-7.098638372000001,-0.004356061,642346147,1.0,1.0389999999999908,0
1171,-7.098638372000001,-0.004356061,749079099,1.0,1.8079999999999943,0
1172,-7.098638372000001,-0.004356061,770588123,0.0,-1.6180000000000163,0
1173,-7.098638372000001,-0.004356061,778697233,1.0,1.9829999999999763,0
1174,-7.098638372000001,-0.004356061,779970594,1.0,1.0489999999999913,0
1175,-7.098638372000001,-0.004356061,796639530,0.0,-1.8709999999999873,0
1176,-7.098638372000001,-0.004356061,828632181,0.0,-1.291999999999996,0
1177,-7.098638372000001,-0.004356061,860810996,0.0,-2.221000000000003,0
1178,-7.098638372000001,-0.004356061,923162466,0.0,-1.0339999999999945,0
1179,-7.098638372000001,-0.004356061,949645864,0.0,-1.3469999999999889,0
1180,-7.098638372000001,-0.004356061,985750851,0.0,-7.699999999999932,0
1181,-7.098638372000001,0.995643939,130941034,0.0,-3.603000000000016,0
1182,-7.098638372000001,0.995643939,218675715,0.0,-3.4110000000000067,0
1183,-7.098638372000001,0.995643939,507740391,0.0,-3.130000000000035,0
1184,-7.098638372000001,1.995643939,778697233,1.0,4.342000000000048,0
1185,-7.098638372000001,1.995643939,789515489,0.0,-4.929000000000043,0
1186,-7.015305038999999,1.995643939,985750851,1.0,10.990999999999987,0
1187,-6.973638372000001,3.995643939,502901314,0.0,-13.248999999999866,0
1188,-6.955781228999999,-5.004356061,96226407,0.0,-9.007,0
1189,-6.931971705,-2.0043560609999997,130271607,0.0,-1.0,0
1190,-6.931971705,-2.0043560609999997,355043712,1.0,1.984000000000014,0
1191,-6.931971705,-2.0043560609999997,749079099,0.0,-1.831000000000011,0
1192,-6.931971705,-2.0043560609999997,909861321,1.0,1.56899999999999,0
1193,-6.931971705,-2.0043560609999997,911960296,0.0,-1.1920000000000048,0
1194,-6.931971705,-2.0043560609999997,933260573,1.0,1.3229999999999882,0
1195,-6.931971705,-1.004356061,374844073,0.0,-3.5389999999999886,0
1196,-6.931971705,-0.004356061,312902548,0.0,-4.699000000000031,0
1197,-6.931971705,-0.004356061,894143700,0.0,-4.661999999999997,0
1198,-6.931971705,0.995643939,683861923,0.0,-3.422000000000021,0
1199,-6.931971705,1.995643939,3964964,1.0,2.121999999999987,0
1200,-6.931971705,1.995643939,41833230,0.0,-2.2169999999999983,0
1201,-6.931971705,1.995643939,43020357,0.0,-1.3869999999999854,0
1202,-6.931971705,1.995643939,514268702,0.0,-1.469000000000012,0
1203,-6.931971705,1.995643939,770588123,1.0,2.038000000000009,0
1204,-6.931971705,1.995643939,971172922,0.0,-1.3529999999999927,0
1205,-6.898638372000001,0.995643939,815555952,0.0,-9.966,0
1206,-6.884352657999999,1.995643939,664438269,1.0,13.805000000000076,0
1207,-6.848638372000001,-3.004356061,874342939,1.0,3.148999999999961,0
1208,-6.848638372000001,-3.004356061,923162466,1.0,3.0689999999999755,0
1209,-6.848638372000001,-3.004356061,931420970,1.0,2.9269999999999827,0
1210,-6.848638372000001,-2.0043560609999997,100416772,1.0,5.396999999999967,0
1211,-6.848638372000001,-2.0043560609999997,224557592,1.0,4.6400000000000245,0
1212,-6.848638372000001,-1.004356061,909861321,1.0,6.03800000000001,0
1213,-6.848638372000001,-0.004356061,985750851,0.0,-8.13000000000008,0
1214,-6.848638372000001,1.995643939,910114803,0.0,-5.278999999999997,0
1215,-6.848638372000001,2.995643939,961875421,0.0,-2.973999999999992,0
1216,-6.798638372,-4.004356061,584470675,1.0,4.876000000000015,0
1217,-6.798638372,3.995643939,507740391,0.0,-4.2300000000000155,0
1218,-6.765305038999999,-3.004356061,626227255,1.0,9.072000000000038,0
1219,-6.765305038999999,-1.004356061,218675715,0.0,-3.7550000000000474,0
1220,-6.765305038999999,-1.004356061,374844073,1.0,2.7599999999999922,0
1221,-6.765305038999999,-1.004356061,945098209,1.0,3.064000000000017,0
1222,-6.765305038999999,1.995643939,539422517,0.0,-17.315999999999903,0
1223,-6.765305038999999,2.995643939,103303422,1.0,9.717999999999924,0
1224,-6.765305038999999,2.995643939,129490812,0.0,-9.967999999999922,0
1225,-6.731971705,-2.0043560609999997,522579064,0.0,-7.719000000000043,0
1226,-6.6986383720000005,0.995643939,815555952,0.0,-9.844000000000044,0
1227,-6.6986383720000005,2.995643939,278773301,0.0,-6.09299999999997,0
1228,-6.681971705,0.995643939,12919430,0.0,-6.713999999999968,0
1229,-6.634352657999999,2.995643939,56470734,0.0,-12.121000000000077,0
1230,-6.62641615,4.995643939,985750851,0.0,-15.655999999999953,0
1231,-6.598638372000001,-4.004356061,224184422,1.0,10.41100000000004,0
1232,-6.598638372000001,-3.004356061,374844073,1.0,3.176999999999977,0
1233,-6.598638372000001,-3.004356061,961875421,0.0,-3.218000000000017,0
1234,-6.598638372000001,-2.0043560609999997,102783161,1.0,1.1360000000000063,0
1235,-6.598638372000001,-2.0043560609999997,129490812,1.0,1.3509999999999993,0
1236,-6.598638372000001,-2.0043560609999997,254632445,1.0,1.4700000000000173,0
1237,-6.598638372000001,-2.0043560609999997,432332461,1.0,1.7780000000000133,0
1238,-6.598638372000001,-2.0043560609999997,889540573,0.0,-1.1279999999999943,0
1239,-6.598638372000001,-1.004356061,34984274,1.0,3.326000000000018,0
1240,-6.598638372000001,-1.004356061,720435955,1.0,3.8830000000000258,0
1241,-6.598638372000001,-1.004356061,846755060,0.0,-2.933999999999984,0
1242,-6.598638372000001,-1.004356061,891299842,0.0,-6.161999999999951,0
1243,-6.598638372000001,-0.004356061,252234006,0.0,-1.1650000000000034,0
1244,-6.598638372000001,-0.004356061,446421117,0.0,-1.0880000000000063,0
1245,-6.598638372000001,-0.004356061,452249694,0.0,-5.205999999999994,0
1246,-6.598638372000001,-0.004356061,455194813,0.0,-1.8659999999999914,0
1247,-6.598638372000001,-0.004356061,507740391,0.0,-2.1879999999999966,0
1248,-6.598638372000001,-0.004356061,514268702,0.0,-1.6420000000000177,0
1249,-6.598638372000001,-0.004356061,874342939,0.0,-4.731999999999981,0
1250,-6.598638372000001,-0.004356061,923162466,0.0,-1.1945000000000112,0
1251,-6.598638372000001,-0.004356061,971172922,1.0,1.0369999999999915,0
1252,-6.598638372000001,0.995643939,504663288,0.0,-8.51400000000004,0
1253,-6.598638372000001,1.995643939,252234006,1.0,1.2250000000000116,0
1254,-6.598638372000001,1.995643939,299760590,0.0,-1.6269999999999867,0
1255,-6.598638372000001,1.995643939,350745134,1.0,1.5739999999999903,0
1256,-6.598638372000001,1.995643939,455194813,0.0,-1.4850000000000112,0
1257,-6.598638372000001,1.995643939,584470675,0.0,-4.75,0
1258,-6.598638372000001,1.995643939,628308431,0.0,-1.5019999999999893,0
1259,-6.598638372000001,1.995643939,630235377,0.0,-2.2169999999999983,0
1260,-6.598638372000001,1.995643939,642346147,0.0,-1.0179999999999865,0
1261,-6.598638372000001,1.995643939,716236442,1.0,2.1660000000000204,0
1262,-6.598638372000001,1.995643939,889540573,1.0,1.3479999999999968,0
1263,-6.598638372000001,1.995643939,931420970,0.0,-1.307999999999995,0
1264,-6.598638372000001,2.995643939,433311086,0.0,-3.8769999999999674,0
1265,-6.598638372000001,2.995643939,657894484,0.0,-3.0930000000000146,0
1266,-6.531971705,1.995643939,449943813,0.0,-7.159000000000073,0
1267,-6.515305038999999,0.995643939,733093513,0.0,-6.626999999999962,0
1268,-6.4486383720000005,0.995643939,522579064,0.0,-9.697000000000044,0
1269,-6.431971705,-4.004356061,504663288,0.0,-7.554000000000058,0
1270,-6.431971705,0.995643939,3964964,0.0,-3.019999999999986,0
1271,-6.398638372000001,-3.004356061,299760590,1.0,6.161000000000029,0
1272,-6.398638372000001,-3.004356061,840480197,1.0,6.085000000000028,0
1273,-6.398638372000001,1.995643939,299760590,0.0,-7.128000000000051,0
1274,-6.3700669439999995,-2.0043560609999997,584470675,1.0,14.019000000000032,0
1275,-6.348638372000001,2.995643939,224557592,0.0,-3.6420000000000368,0
1276,-6.348638372000001,2.995643939,331590088,0.0,-3.009999999999992,0
1277,-6.331971705,1.995643939,720435955,0.0,-8.012999999999943,0
1278,-6.298638372,2.995643939,860810996,0.0,-6.188000000000065,0
1279,-6.265305038999999,-2.0043560609999997,48977487,1.0,2.1459999999999804,0
1280,-6.265305038999999,-2.0043560609999997,652231699,1.0,1.688999999999991,0
1281,-6.265305038999999,-2.0043560609999997,779970594,1.0,1.023000000000011,0
1282,-6.265305038999999,-1.004356061,716236442,1.0,5.862000000000048,0
1283,-6.265305038999999,0.995643939,331590088,0.0,-3.2300000000000146,0
1284,-6.265305038999999,0.995643939,933260573,1.0,2.8099999999999663,0
1285,-6.265305038999999,1.995643939,3964964,0.0,-1.6939999999999877,0
1286,-6.265305038999999,1.995643939,75969320,0.0,-1.1720000000000133,0
1287,-6.265305038999999,1.995643939,224184422,0.0,-7.778999999999997,0
1288,-6.265305038999999,1.995643939,455194813,0.0,-1.553999999999983,0
1289,-6.265305038999999,1.995643939,563121476,1.0,1.0330000000000048,0
1290,-6.265305038999999,1.995643939,630235377,1.0,2.105999999999995,0
1291,-6.265305038999999,1.995643939,796639530,0.0,-2.183999999999989,0
1292,-6.265305038999999,1.995643939,911960296,0.0,-1.4149999999999963,0
1293,-6.265305038999999,1.995643939,945098209,0.0,-1.8640000000000088,0
1294,-6.265305038999999,1.995643939,971172922,0.0,-1.1789999999999858,0
1295,-6.217685991000001,-4.004356061,396122776,0.0,-11.359000000000067,0
1296,-6.1986383720000005,-1.004356061,626227255,1.0,12.92399999999998,0
1297,-6.1986383720000005,-1.004356061,717256200,0.0,-8.672999999999881,0
1298,-6.1986383720000005,3.995643939,449943813,0.0,-5.132000000000027,0
1299,-6.181971705,0.995643939,673728725,0.0,-6.21300000000005,0
1300,-6.148638372000001,0.995643939,333010087,1.0,8.547000000000006,0
1301,-6.098638372000001,-3.004356061,103303422,0.0,-2.5700000000000047,0
1302,-6.098638372000001,-3.004356061,909861321,1.0,6.097000000000057,0
1303,-6.098638372000001,-2.0043560609999997,394422911,1.0,5.0,0
1304,-6.098638372000001,-0.004356061,41833230,1.0,1.1240000000000114,0
1305,-6.098638372000001,-0.004356061,130271607,0.0,-1.0439999999999934,0
1306,-6.098638372000001,-0.004356061,148334112,0.0,-7.786000000000035,0
1307,-6.098638372000001,-0.004356061,252234006,1.0,1.1340000000000048,0
1308,-6.098638372000001,-0.004356061,605713945,0.0,-1.1799999999999984,0
1309,-6.098638372000001,-0.004356061,626227255,0.0,-1.6059999999999952,0
1310,-6.098638372000001,-0.004356061,696039965,1.0,7.87300000000004,0
1311,-6.098638372000001,-0.004356061,718176674,1.0,1.3540000000000068,0
1312,-6.098638372000001,-0.004356061,755075290,0.0,-1.209999999999998,0
1313,-6.098638372000001,-0.004356061,770588123,1.0,1.995000000000004,0
1314,-6.098638372000001,-0.004356061,828632181,1.0,1.0059999999999862,0
1315,-6.098638372000001,-0.004356061,840480197,1.0,1.3890000000000078,0
1316,-6.098638372000001,-0.004356061,894143700,0.0,-7.3960000000000665,0
1317,-6.098638372000001,-0.004356061,961875421,1.0,1.125,0
1318,-6.098638372000001,0.995643939,75969320,1.0,2.8920000000000328,0
1319,-6.098638372000001,0.995643939,374999420,1.0,5.78699999999996,0
1320,-6.098638372000001,0.995643939,507740391,0.0,-2.648999999999975,0
1321,-6.098638372000001,0.995643939,673728725,0.0,-2.6649999999999814,0
1322,-6.098638372000001,1.995643939,452249694,0.0,-4.919000000000014,0
1323,-6.098638372000001,1.995643939,507740391,0.0,-5.036999999999983,0
1324,-6.098638372000001,2.995643939,321769333,0.0,-6.644999999999984,0
1325,-5.998638372,3.995643939,979660929,0.0,-4.503999999999954,0
1326,-5.931971705,-3.004356061,192065971,0.0,-8.779000000000027,0
1327,-5.931971705,-2.0043560609999997,48977487,1.0,1.3700000000000039,0
1328,-5.931971705,-2.0043560609999997,254632445,0.0,-1.0299999999999867,0
1329,-5.931971705,-2.0043560609999997,432332461,1.0,1.5389999999999897,0
1330,-5.931971705,-2.0043560609999997,749079099,1.0,1.6979999999999862,0
1331,-5.931971705,-2.0043560609999997,911960296,1.0,1.0480000000000016,0
1332,-5.931971705,-2.0043560609999997,971172922,1.0,1.1050000000000078,0
1333,-5.931971705,-1.004356061,2884955,1.0,3.3209999999999784,0
1334,-5.931971705,-1.004356061,789515489,0.0,-12.846999999999971,0
1335,-5.931971705,-0.004356061,534449063,0.0,-4.044000000000041,0
1336,-5.931971705,-0.004356061,561564728,0.0,-4.76500000000002,0
1337,-5.931971705,-0.004356061,586071473,0.0,-4.983,0
1338,-5.931971705,-0.004356061,720435955,0.0,-5.222999999999967,0
1339,-5.931971705,-0.004356061,891299842,0.0,-4.70599999999998,0
1340,-5.931971705,0.995643939,2884955,1.0,3.074000000000011,0
1341,-5.931971705,0.995643939,192065971,0.0,-6.686000000000038,0
1342,-5.931971705,0.995643939,779970594,1.0,2.9230000000000014,0
1343,-5.931971705,1.995643939,130271607,1.0,1.0729999999999902,0
1344,-5.931971705,1.995643939,455194813,0.0,-2.386999999999968,0
1345,-5.931971705,1.995643939,507157861,1.0,1.469000000000012,0
1346,-5.931971705,1.995643939,578711405,1.0,1.4769999999999848,0
1347,-5.931971705,1.995643939,874342939,0.0,-2.4410000000000127,0
1348,-5.931971705,1.995643939,956660069,1.0,1.2050000000000018,0
1349,-5.884352657999999,-0.004356061,539422517,1.0,17.143000000000026,0
1350,-5.873638372,2.995643939,534449063,1.0,15.15200000000004,0
1351,-5.848638372000001,1.995643939,374844073,0.0,-4.05999999999996,0
1352,-5.812924086000001,0.995643939,355043712,0.0,-15.072000000000068,0
1353,-5.798638372,-3.004356061,891299842,1.0,6.367999999999966,0
1354,-5.798638372,-0.004356061,396122776,1.0,10.997000000000027,0
1355,-5.798638372,-0.004356061,789515489,1.0,11.407000000000087,0
1356,-5.798638372,2.995643939,664438269,0.0,-6.148000000000022,0
1357,-5.765305038999999,-5.004356061,176326342,1.0,6.277999999999939,0
1358,-5.765305038999999,-4.004356061,299760590,1.0,7.833000000000059,0
1359,-5.765305038999999,-1.004356061,2884955,0.0,-3.1120000000000196,0
1360,-5.765305038999999,-1.004356061,534449063,1.0,3.490000000000008,0
1361,-5.765305038999999,-1.004356061,716236442,0.0,-3.546000000000033,0
1362,-5.765305038999999,0.995643939,41833230,1.0,3.3740000000000197,0
1363,-5.765305038999999,0.995643939,626227255,0.0,-3.174999999999972,0
1364,-5.765305038999999,0.995643939,979660929,0.0,-3.87599999999998,0
1365,-5.765305038999999,2.995643939,985750851,1.0,9.289999999999969,0
1366,-5.6986383720000005,-1.004356061,846755060,1.0,9.527999999999953,0
1367,-5.6986383720000005,2.995643939,815555952,0.0,-5.532999999999942,0
1368,-5.693876467000001,-4.004356061,56470734,1.0,10.286999999999985,0
1369,-5.6875272610000005,-4.004356061,96226407,0.0,-17.199999999999914,0
1370,-5.665305039,1.995643939,452249694,0.0,-7.88700000000006,0
1371,-5.64625742,-4.004356061,224184422,0.0,-10.934000000000115,0
1372,-5.598638372000001,-3.004356061,589703985,1.0,2.5969999999999844,0
1373,-5.598638372000001,-3.004356061,891299842,1.0,3.5889999999999906,0
1374,-5.598638372000001,-2.0043560609999997,120939072,1.0,2.1280000000000125,0
1375,-5.598638372000001,-2.0043560609999997,130941034,1.0,1.0,0
1376,-5.598638372000001,-2.0043560609999997,312902548,1.0,1.2820000000000022,0
1377,-5.598638372000001,-2.0043560609999997,563121476,0.0,-1.0,0
1378,-5.598638372000001,-2.0043560609999997,828632181,0.0,-1.1340000000000048,0
1379,-5.598638372000001,-2.0043560609999997,885985637,1.0,1.2219999999999898,0
1380,-5.598638372000001,-2.0043560609999997,949879914,1.0,1.2190000000000039,0
1381,-5.598638372000001,-1.004356061,367119634,1.0,2.7290000000000245,0
1382,-5.598638372000001,-1.004356061,628308431,1.0,3.4369999999999647,0
1383,-5.598638372000001,-1.004356061,923162466,1.0,2.5059999999999985,0
1384,-5.598638372000001,-0.004356061,12919430,0.0,-4.0560000000000285,0
1385,-5.598638372000001,-0.004356061,148334112,0.0,-4.34999999999996,0
1386,-5.598638372000001,-0.004356061,254632445,1.0,1.3099999999999896,0
1387,-5.598638372000001,-0.004356061,331590088,0.0,-5.117000000000016,0
1388,-5.598638372000001,-0.004356061,349171132,0.0,-1.788000000000009,0
1389,-5.598638372000001,-0.004356061,374999420,0.0,-7.416000000000065,0
1390,-5.598638372000001,-0.004356061,589703985,1.0,1.0,0
1391,-5.598638372000001,-0.004356061,718176674,1.0,1.6649999999999916,0
1392,-5.598638372000001,-0.004356061,720435955,0.0,-1.9869999999999886,0
1393,-5.598638372000001,-0.004356061,749079099,1.0,2.1929999999999885,0
1394,-5.598638372000001,-0.004356061,770588123,1.0,2.298999999999984,0
1395,-5.598638372000001,-0.004356061,778697233,0.0,-1.922000000000018,0
1396,-5.598638372000001,-0.004356061,889540573,0.0,-1.0,0
1397,-5.598638372000001,-0.004356061,931420970,0.0,-1.760499999999999,0
1398,-5.598638372000001,0.995643939,534449063,0.0,-3.5789999999999664,0
1399,-5.598638372000001,1.995643939,2884955,0.0,-2.139000000000004,0
1400,-5.598638372000001,1.995643939,56470734,1.0,1.0249999999999906,0
1401,-5.598638372000001,1.995643939,134057190,0.0,-4.492999999999977,0
1402,-5.598638372000001,1.995643939,148334112,0.0,-1.453999999999989,0
1403,-5.598638372000001,1.995643939,251653297,0.0,-1.995999999999987,0
1404,-5.598638372000001,1.995643939,452249694,0.0,-4.659000000000057,0
1405,-5.598638372000001,1.995643939,455194813,0.0,-2.489000000000015,0
1406,-5.598638372000001,1.995643939,828632181,0.0,-1.3139999999999985,0
1407,-5.598638372000001,1.995643939,885985637,0.0,-1.0350000000000104,0
1408,-5.598638372000001,1.995643939,909861321,0.0,-1.8400000000000079,0
1409,-5.598638372000001,1.995643939,979660929,0.0,-4.279999999999986,0
1410,-5.598638372000001,2.995643939,507740391,0.0,-3.7409999999999886,0
1411,-5.515305038999999,-1.004356061,394422911,0.0,-6.009000000000013,0
1412,-5.498638372,-3.004356061,502901314,1.0,6.639999999999978,0
1413,-5.4653050389999995,0.995643939,910114803,0.0,-12.884000000000013,0
1414,-5.455781228999999,-5.004356061,716236442,1.0,9.235999999999953,0
1415,-5.431971705,-4.004356061,56470734,1.0,7.170000000000046,0
1416,-5.431971705,-3.004356061,626227255,1.0,8.655999999999956,0
1417,-5.431971705,-1.004356061,254632445,0.0,-3.272999999999978,0
1418,-5.431971705,-1.004356061,718176674,0.0,-2.5030000000000006,0
1419,-5.431971705,0.995643939,586071473,0.0,-3.433999999999982,0
1420,-5.431971705,0.995643939,846755060,1.0,3.4839999999999773,0
1421,-5.398638372000001,-2.0043560609999997,176326342,0.0,-13.791000000000112,0
1422,-5.348638372,-2.0043560609999997,561564728,0.0,-4.621000000000047,0
1423,-5.348638372,-1.004356061,584470675,1.0,6.744000000000036,0
1424,-5.348638372,2.995643939,48977487,0.0,-3.943999999999972,0
1425,-5.348638372,2.995643939,894143700,0.0,-3.6800000000000157,0
1426,-5.312924086000001,-0.004356061,977170877,0.0,-16.609000000000165,0
1427,-5.265305038999999,-2.0043560609999997,103303422,1.0,2.212999999999986,0
1428,-5.265305038999999,-2.0043560609999997,336172395,0.0,-1.0280000000000085,0
1429,-5.265305038999999,-2.0043560609999997,605713945,1.0,1.1390000000000073,0
1430,-5.265305038999999,-2.0043560609999997,828632181,1.0,1.0760000000000092,0
1431,-5.265305038999999,0.995643939,96226407,0.0,-3.18800000000003,0
1432,-5.265305038999999,1.995643939,103303422,0.0,-1.5199999999999896,0
1433,-5.265305038999999,1.995643939,299760590,0.0,-1.9829999999999763,0
1434,-5.265305038999999,1.995643939,514268702,1.0,2.4269999999999983,0
1435,-5.265305038999999,1.995643939,578711405,0.0,-1.3709999999999896,0
1436,-5.265305038999999,1.995643939,718176674,0.0,-1.486999999999996,0
1437,-5.265305038999999,1.995643939,840480197,1.0,1.4969999999999937,0
1438,-5.265305038999999,1.995643939,860810996,0.0,-2.221000000000003,0
1439,-5.265305038999999,1.995643939,904039471,0.0,-1.1390000000000073,0
1440,-5.265305038999999,1.995643939,909861321,0.0,-1.5320000000000085,0
1441,-5.248638372,-1.004356061,717256200,1.0,9.902000000000038,0
1442,-5.198638372,-0.004356061,717256200,1.0,11.375,0
1443,-5.198638372,3.995643939,48977487,0.0,-4.58899999999998,0
1444,-5.187924086000001,0.995643939,815555952,1.0,17.52900000000024,0
1445,-5.170066943999999,1.995643939,192065971,0.0,-14.001000000000138,0
1446,-5.148638372,0.995643939,355043712,0.0,-9.137999999999941,0
1447,-5.098638372,-5.004356061,717256200,1.0,12.47699999999992,0
1448,-5.098638372,-1.004356061,299760590,0.0,-2.6349999999999922,0
1449,-5.098638372,-1.004356061,652231699,1.0,2.8650000000000078,0
1450,-5.098638372,-0.004356061,3964964,0.0,-1.0779999999999879,0
1451,-5.098638372,-0.004356061,34984274,1.0,1.6180000000000163,0
1452,-5.098638372,-0.004356061,75969320,0.0,-1.089000000000002,0
1453,-5.098638372,-0.004356061,102783161,0.0,-1.0869999999999922,0
1454,-5.098638372,-0.004356061,245315813,1.0,2.096000000000003,0
1455,-5.098638372,-0.004356061,374844073,0.0,-1.980999999999995,0
1456,-5.098638372,-0.004356061,432332461,0.0,-1.5280000000000122,0
1457,-5.098638372,-0.004356061,563121476,1.0,1.4450000000000105,0
1458,-5.098638372,-0.004356061,664438269,1.0,13.621000000000079,0
1459,-5.098638372,-0.004356061,683861923,1.0,1.9650000000000096,0
1460,-5.098638372,-0.004356061,755075290,0.0,-1.0950000000000142,0
1461,-5.098638372,-0.004356061,779970594,1.0,1.5240000000000007,0
1462,-5.098638372,-0.004356061,796639530,0.0,-2.1150000000000078,0
1463,-5.098638372,-0.004356061,889540573,0.0,-1.023000000000011,0
1464,-5.098638372,-0.004356061,911960296,0.0,-1.5864999999999998,0
1465,-5.098638372,-0.004356061,945098209,1.0,2.043000000000006,0
1466,-5.098638372,-0.004356061,979660929,0.0,-1.1329999999999971,0
1467,-5.098638372,0.995643939,278773301,1.0,3.846000000000003,0
1468,-5.098638372,0.995643939,492518259,1.0,2.631000000000003,0
1469,-5.098638372,1.995643939,891299842,0.0,-4.988000000000004,0
1470,-5.027209801000001,2.995643939,96226407,0.0,-12.690999999999875,0
1471,-4.998638372,-4.004356061,507740391,1.0,4.505000000000058,0
1472,-4.998638372,-3.004356061,56470734,0.0,-5.570000000000028,0
1473,-4.987527261,-3.004356061,251264572,1.0,17.581000000000092,0
1474,-4.931971705,-2.0043560609999997,3964964,0.0,-1.0,0
1475,-4.931971705,-2.0043560609999997,48977487,1.0,7.092999999999952,0
1476,-4.931971705,-2.0043560609999997,630235377,0.0,-1.5990000000000117,0
1477,-4.931971705,-2.0043560609999997,749079099,1.0,1.9389999999999874,0
1478,-4.931971705,-2.0043560609999997,874342939,1.0,2.1280000000000125,0
1479,-4.931971705,-1.004356061,74263281,1.0,3.603000000000016,0
1480,-4.931971705,-1.004356061,589703985,0.0,-3.2239999999999878,0
1481,-4.931971705,-0.004356061,192065971,1.0,13.005000000000091,0
1482,-4.931971705,-0.004356061,522579064,0.0,-13.713999999999954,0
1483,-4.931971705,0.995643939,218675715,1.0,3.5409999999999897,0
1484,-4.931971705,1.995643939,2884955,0.0,-1.471000000000003,0
1485,-4.931971705,1.995643939,176326342,0.0,-1.7519999999999842,0
1486,-4.931971705,1.995643939,321769333,0.0,-2.1580000000000044,0
1487,-4.931971705,1.995643939,331590088,0.0,-1.6660000000000188,0
1488,-4.931971705,1.995643939,349171132,0.0,-1.5929999999999904,0
1489,-4.931971705,1.995643939,796639530,0.0,-1.5339999999999936,0
1490,-4.931971705,1.995643939,885985637,0.0,-1.0699999999999965,0
1491,-4.848638372,-3.004356061,245315813,1.0,2.7760000000000034,0
1492,-4.848638372,-3.004356061,979660929,1.0,2.907999999999978,0
1493,-4.848638372,0.995643939,120939072,0.0,-6.494000000000032,0
1494,-4.848638372,1.995643939,492518259,0.0,-4.1050000000000155,0
1495,-4.848638372,1.995643939,778697233,0.0,-4.1800000000000175,0
